encog,BasicNetwork,java,3.4.0,1,1773812120979
[BASIC]
[BASIC:PARAMS]
[BASIC:NETWORK]
beginTraining=0
connectionLimit=0
contextTargetOffset=0,0,0,0,0,0
contextTargetSize=0,0,0,0,0,0
endTraining=5
hasContext=f
inputCount=28
layerCounts=1,17,33,65,129,29
layerFeedCounts=1,16,32,64,128,28
layerContextCount=0,0,0,0,0,0
layerIndex=0,1,18,51,116,245
output=0,0,0,0,0,0,0,0,0,0,0,0,0,0,0,0,0,1,0,0,0,0,0,0,0,0,0,0,0,0,0,0,0,0,0,0,0,0,0,0,0,0,0,0,0,0,0,0,0,0,1,0,0,0,0,0,0,0,0,0,0,0,0,0,0,0,0,0,0,0,0,0,0,0,0,0,0,0,0,0,0,0,0,0,0,0,0,0,0,0,0,0,0,0,0,0,0,0,0,0,0,0,0,0,0,0,0,0,0,0,0,0,0,0,0,1,0,0,0,0,0,0,0,0,0,0,0,0,0,0,0,0,0,0,0,0,0,0,0,0,0,0,0,0,0,0,0,0,0,0,0,0,0,0,0,0,0,0,0,0,0,0,0,0,0,0,0,0,0,0,0,0,0,0,0,0,0,0,0,0,0,0,0,0,0,0,0,0,0,0,0,0,0,0,0,0,0,0,0,0,0,0,0,0,0,0,0,0,0,0,0,0,0,0,0,0,0,0,0,0,0,0,0,0,0,0,0,0,0,0,0,0,0,0,0,0,0,0,0,0,0,0,0,0,1,0,0,0,0,0,0,0,0,0,0,0,0,0,0,0,0,0,0,0,0,0,0,0,0,0,0,0,0,1
outputCount=1
weightIndex=0,17,545,2625,10881,14593
weights=##0
##double#14593
   -0.0177404602,0.9391918042,0.3235621358,0.0434211432,0.0351594095,-0.2916871616,0.6619957735,-0.2592939391,-0.0252170709,0.2249336282,-0.3952537843,0.0071611726,0.730380581,0.5589575242,0.2768370976,-0.2035626674,-0.0939363846,-444.3665339972,-1.7021984885,-3.700620167,-1.8399863802,1.6558311939,0.3717274071,-1.9854042343,1.4334016352,1.7863539917,-0.9913485427,0.4982299554,1.1120097865,1.9871360382,177.4453325238,-444.2096669485,7.6838320196,-3.8347069204,61.2899540682,-1.8619230897,61.2541334737,445.5966688842,-1.4456896965,-1.4011041734,-0.4187056023,444.6827582615,-62.0285859168,-62.7031660835,-1.3272857625,-21.591475063,0.0218779071,-0.2156083353,-1.089819936,-3.7057764792,-1.4074812316,0.1612712388,1.1100166187,0.8913713547,0.4360963817,-0.6927124481,0.0482830653,0.1080213198,0.1179206264,0.8705533223,0.1465178355,0.4101926022,-0.061122336,0.436017638,0.7121464751,0.4967377801,0.8445788459,1.6031012675,-0.4567065464,0.3560296413,0.9535023446,-0.0229844566,0.9342216639,0.2503710475,-0.6264850548,0.4480043602,0.9700386527,-0.0044246594,-0.6561604437,-0.7237226015,0.2598171181,-0.4561489998,-0.5807921354,0.5711593785,0.6076671507,-0.1123393305,-0.0863355315,0.6164558841,0.856188588,0.5944835998,-0.0436753274,-0.445578767,0.0355227214,0.9713933842,-0.9717198737,0.2588349136,-0.381293807,0.8577030543,-0.0617593657,-0.693488547,-1.1785583677,-0.1274334325,0.1401236609,-1.0345070361,-0.8922088274,-0.1396997742,0.3876869167,0.7280167037,-1.3291618861,0.1745019675,-0.8120393978,-0.9556834811,-0.4703825493,0.191828046,0.3547560951,-0.6156518434,4.7364868763,-0.6299940951,-0.8730301665,-0.5340501867,0.9977421051,-0.0597317675,-1.7319335188,0.6836428468,0.5774608774,0.4621545365,1.2094830034,0.8107447357,-0.1159369627,-1.3788067813,2.4523827378,1.055786531,-0.6883336329,-1.9643923048,-0.6887418287,-2.1551385433,-0.4058925691,-0.6717371658,0.6573670392,0.3342745413,-1.0351605723,0.4077469692,0.6631899242,-0.026259919,0.2993413639,0.4358751433,0.2842864891,-0.4403981297,-1.1035761304,-0.4276312011,-0.4306624989,-0.5007462593,-0.9070263729,0.5607665518,0.4168392933,-0.0499924476,-0.2475554942,-0.4077656109,0.033421685,-0.2292832751,0.3944940975,0.5980951135,-0.3383196672,-0.2983699562,-0.2508325142,0.1952016459,-1.2128572408,0.7169412911,-0.5140553872,-2.0110122202,-0.9091505601,0.6574185859,0.3033359921,-1.161446726,-0.631871744,0.0038235607,-0.1464569415,0.5036847931,0.0745225665,-0.4193445817,0.4927732522,-0.4923046254,-0.095669066,-0.6952294693,0.2957517361,0.3602902558,-1.5857419907,0.0638900525,-0.4213745018,0.3605525993,-0.0039456504,-0.232099357,0.4829801982,-0.1362258738,1.1255532004,-0.9116423416,-0.0686640533,-0.6758230403,-0.0014976181,-0.4972909056,1.0869198493,0.2058912708,0.1290262731,-0.837693683,0.5470266293,0.7677445948,-0.6035325635,0.0104457689,-0.3345908756,0.2617533239,0.0421723051,0.1742700801,-0.9643055491,-0.5922954995,-0.1781267119,1.1807359468,-0.3829399107,-0.0532848136,-0.4206051125,-0.6413906546,0.1328032583,-0.7890909794,0.9775185243,-0.1502586534,0.0254722213,-0.2108339501,0.8523755081,0.2838888943,-1.3570333158,-0.4274344622,0.3564525341,-0.5070424442,-1.2384584816,0.0682481493,0.0750475049,-0.585426409,0.0952777781,-0.4523571679,-0.3212693842,-1.184408497,0.4953557549,0.3441573041,-0.479705246,-0.1447508778,-0.2786731879,-0.0820655944,0.8621410541,0.0539727607,5.4583449878,-5.0214027541,-1.720034479,-1.4409398773,-0.0125299917,2.0252531472,-0.4595162552,3.8783111807,2.2524774273,-1.8550528632,3.3962934207,0.1412585001,0.365300629,-0.8769683199,-0.1293700332,-9.3657333511,-0.5827446593,-1.4043513052,-1.0149795945,-1.4322705393,-1.8882216674,-1.8962665252,6.5822458231,0.6447618671,-0.1081559537,3.4116237542,2.8848354253,-0.8855063933,3.3150018057,-3.1344978769,-0.5413440266,-0.1663168648,-0.9882868939,-1023.0296947905,-2.1469030741,-22.2755047929,-8.3548621721,20.3664761236,7.8812180993,-8.3178293781,23.0121839202,23.0320429096,-8.2643830935,0.6808277686,8.6016781882,8.0575922915,734.1433964153,-735.1196453437,62.7470634387,-8.0323790986,444.0736358999,-1.8243829251,735.9444545282,734.2241725958,-22.9022530474,-1.3688658443,-5.800529855,733.8821361146,-176.8817793954,-444.88043681,-22.2920300203,-445.9846165249,-2.3319406777,-8.3025091195,-0.3750040086,-21.7685324008,0.2763751455,3.1886006421,-0.0023882108,-0.2265564975,-0.1220698836,0.7338817477,0.2534560666,2.364179578,1.3363156122,-1.2227283941,1.2828853929,0.9174609081,1.2600997381,-0.1944707694,-0.7566119886,-2.8856510392,-0.9538372888,-1.041406401,-1.0242520388,-4.9080660132,-1.6204714449,-2.3151783642,-2.0431128351,1.8967434057,-1.4408539777,-0.0373618371,0.4760094043,-2.3075207683,1.1188333213,2.4741423734,0.1499934778,6.0966765267,-0.5367682762,1.1351789988,0.2979036284,0.4665243605,-0.5310133992,0.5857613708,0.9805229515,0.4479032882,0.5688753483,0.0895455744,0.3559513009,0.6843861441,0.132406409,0.4379742403,-1.4362827387,2.6089343673,1.0367242912,-1.1055948839,-0.9661923526,-0.3753348752,-1.2705796641,-0.3526728241,0.062563993,-0.5874559948,0.8799691019,-0.4064497404,0.8601131664,-0.6035321392,0.1334677905,0.4261375943,0.3259162808,-0.7261757413,0.5727458663,0.6703156475,-1.0213648995,0.3174171962,0.3260864276,0.3115158828,-0.3633598353,-0.5045729224,-0.1643438821,-0.08719972,0.6515438128,0.7748298101,-0.7923131546,-0.0736979737,-0.6965972746,-0.1287143931,37.6950833861,0.8305832886,-0.3881718656,0.1369215104,-0.9925665298,0.1691585694,1.12639685,-0.9459705556,-0.9896397503,-0.6627685922,1.6933383368,-0.1996322623,-1.2975492299,-0.3896759449,0.1399360032,0.4007890255,-0.1965293541,-0.0821957524,-0.6743599339,-0.0664686154,-0.1518166333,0.1684087569,0.5491039054,-0.319261811,-0.4775414959,-0.8603586135,0.3754241347,-0.7154982264,0.2516361567,0.2912912375,-0.0328374463,0.4001276499,0.1395726597,0.0931777381,-0.6749861798,0.617816197,1.1430799357,0.9905971948,0.8288860174,-0.6897706455,0.635616048,0.0108474667,-0.4581936843,0.1330111523,-0.6473890734,0.1957664653,-0.2317855792,0.2460469932,-0.4558762709,0.4176205543,-0.0111054205,-0.9640504816,1.9514271763,0.8687388454,-0.0430348031,-0.3190428927,0.2420546014,0.7297243912,-0.7051431233,0.0162566981,0.4258981663,-0.7855658681,-0.1977034533,0.9464016432,0.4905315083,-0.9675949144,1.4899651507,1.3667175455,-0.5670550188,-1.090697997,-0.0241540447,-0.021137118,-1.5667051882,-0.1224164656,0.1879329913,-0.5581880655,-0.5947710145,0.319368711,0.1469145361,-0.3981584687,0.3474949603,-0.7607102194,-0.8494985917,-0.4977801273,-0.1503009757,0.1623631989,-0.9918744469,-0.566006865,-0.1942459817,1.0824486112,-0.0318218913,-0.5137657496,0.1246440613,0.8561831535,-0.6132831741,0.0503390867,1.0583131074,0.0656151891,-0.7933342328,-0.3899362801,0.7364237388,-0.6262095635,-0.6702785558,-0.1445779993,-0.8695155319,0.6721615627,-0.1624115383,-2.2843530865,-0.194517553,-0.5482943342,-0.965605702,0.6694650699,0.3021667702,0.6167499574,-0.6352459258,-0.5384048142,0.2868977945,-0.4991284644,-0.4719559683,0.7887603582,-0.5885798188,-0.3657794403,-0.9067158714,0.9186902023,0.9623353416,-1.0560788385,0.4274727195,0.3992011488,0.3280030799,-0.4068948296,-0.8873885429,-0.8094069775,-0.0383586174,-0.2376738903,-0.286657572,-0.3339158106,-0.5373661907,-0.2235037698,0.9330920155,0.5422760192,0.5914582978,-0.3225308351,-0.3018812433,-0.5617678146,0.2555142665,-0.1992017253,0.4890292207,0.2748106013,0.7719766882,0.3658370313,-0.6889091047,0.9168729212,0.7794314783,1.2024535348,0.1781991513,-0.0404158552,0.7857446091,-0.5741478863,-0.787244294,0.5137694285,0.259484674,-0.0282118151,0.0250719349,0.5045637984,0.5549611624,-0.1671588791,-0.3078449078,0.4157298958,0.3432893506,-0.8931125532,0.6035032512,-0.2927696314,0.6596684274,-1.0354205627,-0.3153017748,0.030814791,0.385226039,0.2870151638,0.0427636302,0.3315941477,0.1729179143,0.3890487574,-0.7463297855,0.6818647297,-0.1801252839,-0.5810728952,-0.1656396065,-0.74239868,-1.0427934859,1.0161579914,0.4647201371,0.746428356,0.06936723,-0.120430651,-0.9620734239,1.0400925986,-0.3153051248,-1.1078714132,0.6252735398,0.2323003658,-0.1790605104,-0.173835309,-0.5645330432,0.2252545497,-0.6360187607,0.8454738086,-1.4065750073,-0.7161576218,-0.5949935964,-0.7256754182,-0.017746171,-0.1982118978,-0.5805572758,0.9105954252,-0.1011723282,0.843112745,0.8305870744,1.8569849738,0.729102956,-0.349505455,0.3146568608,0.5651971198,-0.1970043854,-0.3853962985,-2.2314407936,-0.215015501,0.8184523471,-0.7370997839,-0.1257188068,-0.9465785557,-1.0859190611,-0.1819723376,0.2586628943,-0.6517341732,0.6609332217,-0.2262890225,-0.3543355164,-1.1289451774,-0.1599331206,-0.1920156263,-0.5347949722,0.5769620226,0.4434000509,0.1218141823,-0.9096250601,-0.7401671723,0.713148119,-0.5707117677,-1.0911752802,-0.3699317815,-0.0681585555,0.5112725502,-0.0688747996,-0.732807904,0.8643846037,-0.3298873797,-0.8169640054,-0.5745575265,-0.3461005511,0.5348079089,3.0977439317,-0.3141052747,1.1369193904,-0.4371131593,1.0635656866,0.8754757427,-1.6983504225,0.5123424808,-0.8585775779,-0.8341874501,1.5019540036,-0.296919555,0.9420719037,0.3218954877,-0.5849801269,0.1684423732,0.1092802549,0.3300134138,-0.2116958153,2.3199465782,0.9102214475,0.6717705972,-0.9702049755,0.1282896946,1.1780817111,-0.8079770289,1.8295990128,0.967568958,-0.3350276914,0.7316461686,0.0358458129,-0.3741194814,0.0301049099,-0.5099743131,-0.1089016304,-0.8849073668,0.3263241571,0.6309278661,0.7158695396,-0.1961102787,0.9373132951,-0.3598399695,0.4113297259,-0.6111284983,1.8376341073,-1.2061600815,0.3621581796,1.8803255281,-2.0241828692,-0.9335829258,-0.5452446978,-0.9854921221,0.4500594076,-0.4304082725,-0.9304551931,0.6193684903,0.0301905331,-0.3746034132,-0.9333036073,-0.4115744309,1.9570080563,0.364003335,0.8809248588,0.8787140601,-0.183193277,-0.3010281559,1.7255450748,0.0355006032,0.6008265448,0.3738945625,1.8351686882,0.348599605,0.4575208513,-0.070928837,0.2354422018,0.0356354546,0.2498721556,0.3504973463,-0.795427316,-0.5976448461,-0.7488358988,0.891797708,-1.4871635218,0.9520735007,-0.4588588633,1.3247655519,0.1830718799,-0.4736984956,-0.0838006092,0.8472059541,-0.2627220082,1.4865128208,-0.5395038583,1.0300953669,1.1787581818,-0.531405866,0.3101421335,0.5320347746,-0.4107288631,-0.7752468422,-1.4011221029,-0.0451631925,-0.4425161176,0.7540042482,-0.5877287999,-0.5585488518,-0.586920037,2.1228186104,1.2520779,1.4056880621,-0.8215494687,0.4517687236,1.7305031477,-1.094027831,0.1424785345,0.0497731602,0.0438061875,1.2411217968,-1.4929932655,-1.2223501935,0.7909330483,-0.5301435818,-0.6161111622,-0.3565077279,-0.4582645942,0.6818270432,0.4361133016,1.5884368491,0.3821376459,-0.2828876114,-0.2122987703,0.8631655422,0.4596402498,-0.4693092293,1.3956070937,0.6207801876,0.6520269453,1.4247312239,-0.311530352,-0.7969685008,-0.1144023711,-0.3265927866,0.8486045782,-1.1962285308,0.8719847465,-1.9452206227,-0.0659006958,-0.411627553,0.4609513528,-0.0350280829,2.2507433612,-0.185131032,-0.1763578717,0.4463279435,-0.4620745786,0.3925254062,-0.5313303242,2.1602562996,0.2300246058,-0.2554640611,1.1931943169,1.0319830824,1.0821955714,-0.294595557,0.7590765836,-0.7831296348,0.8425830571,0.8715175262,-0.8355932659,-0.852657459,0.646122744,-0.7160846606,0.2145072124,-0.2096150932,0.2454740652,-0.7094258858,-0.6992538342,0.7363831427,-0.632001037,-0.4630346331,0.5899007011,-0.1358714559,-0.2222888634,-0.6360506005,0.512931894,-0.3764489172,0.0246708363,-0.8181780912,-0.3403422332,-7.3463298591,-0.8236121346,0.6924122591,0.2575066089,0.4424043852,0.3053779544,-0.0713849862,0.1218161624,-0.6177884357,-0.8464690154,0.4979741669,0.5396148907,0.8061781421,-0.8256303929,-0.4900004766,0.2934400842,-0.0409221427,3.0197722327,0.627736701,1.2302643398,0.1168447331,0.0364451148,-1.128775731,0.4287316947,-1.0815641366,-0.5236052263,1.0549892729,-0.3997495841,0.5457528481,0.1020320064,-0.307512053,-0.1652755494,0.3339326113,-0.6866527304,-0.3912934277,-0.4437179583,-0.5602220531,0.0138421754,-0.3701664156,-0.646272842,0.2485224148,-0.5423102015,-0.0930035106,0.2788950445,0.8282287146,-1.0984877194,0.4193207086,0.5421396104,0.6454893296,-0.7362139178,-0.9729543195,0.3376944652,0.3839594998,0.1095040094,0.2503487015,0.1442928787,0.2472523162,0.4969808799,-0.1791106483,0.1605583292,-0.1042995987,-0.3177153812,-0.7028980596,-0.1959674612,0.2983247545,0.1969257494,0.4059448558,-0.958284063,0.4997423512,0.7060300082,-0.1416834807,0.6381504592,0.8909588457,-0.9157802428,0.2246495406,-0.3498956342,-0.1719510005,0.9154510096,1.0004129188,0.3861660031,0.5941838876,-0.765764526,0.2791259459,-0.6643122536,0.2943357518,-0.4696782673,0.9251810356,1.3328107482,0.3140177947,-0.4876058242,-0.9459594583,-0.9530896017,0.5540640199,-0.1475714785,-0.4189628435,0.0397479478,-0.1545547933,0.1312639829,-0.6108421184,-0.3031103671,-0.7107102139,-1.0904463827,-0.3697750053,0.0856613906,-1.505943348,-0.1299482613,-1.5985953747,-0.9027488013,0.8473465938,-0.5818251085,1.0756128526,0.0981573655,0.8761014331,0.6173043333,1.4602472215,-0.0786323179,0.4157948776,0.5800482613,0.5398937596,-0.4363765882,-0.0286683572,0.127238485,-0.9727958097,0.2385857607,-1.2944551476,0.547096249,1.1058266266,0.3114763232,-0.829022373,0.054395377,-0.6844310017,1.0826103548,1.0229926391,0.1418552711,0.6735907277,0.3365842826,0.4336059897,0.9446489351,1.0478600843,1.2288511357,1.3357479312,-0.2733074107,-0.3698915407,0.4469739537,0.0695762361,-1.2199060998,-2.1734320369,0.6636185669,1.2872678862,-1.1580947358,1.3503976734,-1.1122029391,0.7185576537,-2.2021118956,1.2816895993,0.1543805309,0.1385272501,-0.8681504954,-0.0697646837,0.0507470954,-0.1461005944,1.1849243318,0.0517449768,0.6468212929,0.0496035182,-0.2120293134,0.3306073677,0.851703483,-1.2151945189,0.9118486288,0.4734777861,1.453920708,-0.4287306699,-0.7675189633,0.9893769044,-0.3355228137,-0.6897169033,-0.5083826957,0.7325670148,-0.6676578451,-1.5601588168,0.4034819727,-0.6776388587,0.2121403406,-0.1300481544,-1.1223343853,-0.213569446,0.0533707067,-0.432977402,0.7114893486,-0.5161839138,0.5425741985,-0.3997982682,-0.4186224368,-0.5886938627,-0.0935795309,0.3108193517,0.2154539711,-1.605475724,-1.2542922862,-0.1919540832,0.7840192099,-0.4009420848,-0.2351440298,-0.9383639275,-0.3459744296,-1.1553228418,-0.9616664902,-0.6493167219,-0.6735849777,-0.1917210415,1.4529025438,0.1288039794,-1.0597621131,0.5797763506,-1.0549759376,-0.1670123239,0.7425557068,0.155238556,-0.6526513248,0.9053325478,0.1730912383,-0.6868449817,0.6752725909,-0.6970592856,0.141198448,-0.1407797923,-0.8966540162,0.5609297887,0.6788323883,-0.4598652803,0.7640918152,0.1230009711,0.4112531023,1.1898263932,-0.6125589874,0.0139683238,0.5934735347,0.0692089686,0.1251513536,0.3515196579,0.7603919002,-0.6573752561,-1.3541497452,-1.0050599182,-0.1099502253,0.8521526892,-0.0474878794,-1.3062106955,1.3144919216,-0.4518964667,0.4587463961,0.4788927763,-1.1820667657,1.5246121301,0.2741005926,-0.8803172815,-1.1286862119,0.5042613459,0.532032711,-0.4289144772,-1.367521341,-1.0981467347,-1.3588511524,-0.6156027611,-0.6581070634,0.006816713,-0.8136914617,0.0535486694,-0.6306642784,-0.7104209275,-1.5878273809,-1.2434206892,0.0481011066,-1.058878102,0.2088844469,-0.2047165303,-0.0713337137,0.5759268518,0.2723988728,0.6748951196,1.863052307,0.3708443651,1.2476881278,-1.1656048834,0.2177552049,-1.4355022232,0.060069395,-1.2664200002,0.2162348331,-0.4254732585,-0.6741148991,0.7292102938,-0.6865424627,0.4708220566,-0.2880460135,0.8405503868,-0.8159572138,0.3532846981,-0.9541013661,0.3969083093,-0.1876689274,-0.6461167013,-0.716054162,-0.5633838058,0.4719972102,-0.8542544925,0.418217182,-0.2299983378,-0.4374122347,1.330848234,-0.2577673482,0.8526763352,0.2411511886,-0.3911939874,0.4965362989,0.1158947665,-0.7792724604,1.5017915768,-0.1750977307,-0.4072248978,0.8141515547,0.6992269388,0.1212551033,-2.1252344717,-0.3319343597,-0.3063579557,-0.154792063,0.0632513825,1.6633791671,-0.6031486608,0.6956792354,0.7666978873,0.9475117376,0.5462362355,1.368577808,1.7776996938,-0.1616836985,1.5165509345,0.5833103435,-0.072463053,-0.3485960582,-0.986057839,0.7019844899,-0.525889525,0.7961802999,-0.6617461906,0.7077027207,-0.8542882082,-0.5010579027,-0.6491913903,0.6459860888,1.2265852959,2.3493162333,-0.8000766222,0.7406443097,1.0476875421,0.3918570369,-1.0192056221,-0.6766735718,0.6156078836,-0.5469318616,-0.4861354772,-0.3225028503,0.207305593,-0.3647333549,0.7294475937,0.0096052341,-1.2731019174,-0.1599249871,-0.6856965791,0.4167205002,0.1577067526,-0.7888722962,-0.2179951352,-0.1560172536,-0.5276171989,-0.664812645,-0.6149556637,0.7553873904,-1.1272870654,-0.4992168438,0.2939368898,0.1888328214,-0.7630852469,0.2545191589,0.8567859342,-0.2412032926,-0.3828424508,-0.5774363782,3.2852619689,-0.3836965936,-0.6087076654,-1.0712987322,-0.5893914869,-1.2438636897,0.1927411442,-0.0776277641,-0.0648295548,1.1362455628,-0.1880692117,0.6674917092,0.417766753,0.0018536365,-0.2399326378,-0.3534073769,1.2127258986,-1.8222794044,-0.3853447703,0.6549327662,-0.4750123179,0.462303686,0.5444221131,0.9831981956,0.3708024035,1.0769595008,0.3447347297,-0.4064750563,0.6660766778,-0.1796725902,-1.0379016373,0.5383726434,-0.2449430719,0.9564948698,-0.8616920114,0.9126478263,0.9243393184,-0.3787190415,0.9316973029,-0.536766787,1.9742013662,-0.6841078875,0.5094681193,0.0757448285,-0.4288210261,0.4502805889,-0.4736867868,0.3889776624,0.4882280324,0.7947554439,0.473095245,0.4142563811,-0.5822375776,0.0120588179,0.6905062114,0.5032639059,-0.069632131,-0.1830488854,0.013800967,-0.5769721435,0.7633462675,0.5855677763,-0.8364884183,-0.7698625498,-0.3124003464,-1.9655526292,-0.90771906,-0.30386643,-1.3384610287,0.7685323199,0.4240637007,1.0520922161,0.3646683697,0.2542768865,0.2002471827,-0.8616898402,0.9550200514,-0.8042289593,-0.7062036882,0.1765572855,2.5754977446,0.3084831131,-0.4631169001,-0.5845128341,1.3119805468,0.05805178,0.407366581,0.6548208295,0.3521276119,-0.9952004694,0.6899546234,-0.901399597,0.3037453784,1.0373071753,0.2624158253,0.1714274949,0.5418104142,-2.0817872144,-0.0160441126,-1.9603653177,-0.2128368982,0.5852459904,-0.9140023351,-0.5614581932,0.1341994522,-0.3464802358,1.3304497436,0.0594886874,-0.2365275249,0.34673727,-1.1344167598,0.4335409696,0.0813199117,-0.5735004151,-1.1567159458,-0.9990402719,0.5437987498,-0.6169978278,-1.0345299982,1.0530054681,-0.8771801057,1.399091764,-0.0731220247,-1.7138628294,1.1233830037,1.6372015545,-1.3877352766,-0.1697615622,0.2108164221,0.9773828258,0.6255797057,0.2762573952,-0.9465735911,-0.6906040797,0.3645021985,-0.2550818034,-0.6866804581,-0.6342084883,0.1305172946,0.200249116,-1.4571475369,-2.0783099998,-1.6767038741,-1.2253104384,-1.1270129299,-0.0680595337,0.1177651137,0.7483620185,0.3480909678,0.7293600018,0.1468793692,1.775133977,-0.7284439481,1.7893048601,0.0099909685,1.1985127417,-2.0370275649,-0.0591138363,-0.1836522629,-0.1586642178,0.8027345968,-0.5000622786,-0.4739535246,-0.7344548061,0.1839682599,-0.0232631822,0.0626986384,-4.403819632,-1.162407226,0.0468282168,0.8754091066,-0.1170914094,0.8665420919,-1.1867719506,-0.4402727876,-0.0886243756,0.3525225066,0.9460870379,0.4483056315,0.7846194082,-0.1754295475,-0.7016115789,0.4283611004,0.1812781672,0.0761572452,0.4313029137,-0.8150141704,0.3586512498,-0.0013854024,0.5080190532,-0.020841109,0.8045653604,-0.1521976348,0.4506532665,-0.492232173,-1.0851878426,0.1515364442,0.9002990303,-0.5186474769,-0.8215156109,-0.372417525,0.1191699033,-0.2294623038,-0.2781525008,0.5003408639,-0.621272416,0.2678027625,0.2620137348,-0.8295981102,0.7808193356,0.2104285012,1.0722235921,4.5278817592,0.4566525885,-0.4755768817,-0.9546711932,0.4801064383,-0.2418898552,0.5098210128,-0.2497935333,0.5183172957,-0.3777375414,0.9697576304,0.3083098565,-0.4014876957,-0.1497112488,0.7923624168,-0.4689864599,-0.8685065068,-0.3674439406,-0.0056284347,-1.3152481114,0.7530526116,0.1055414113,0.5671128757,-0.1447325522,-0.6652941539,0.2627958365,-0.0036179269,-0.841248758,-0.1340028897,-0.4990428723,-1.0430906279,0.9448849962,0.72675116,0.0751841257,0.688617646,0.3199696578,0.3195898755,0.7556458541,0.6466692012,-0.8785699542,-0.2821787829,0.2152861323,0.6287362867,0.7027858455,-0.1505026551,-0.0517582195,0.5188567975,-0.6031603179,0.4323610445,0.5765552276,-0.345479173,-0.4884153503,0.4496817076,-0.8414577326,1.0571301192,0.3269287047,-0.893701334,-0.6867128809,-1.0320020852,-0.0185289268,-0.4362293857,-0.0944936757,0.6870766121,0.702058193,-0.1292082283,0.2060473756,0.0272708709,0.0485811869,-0.4042707211,-0.9143039149,0.8447319987,-0.6714019774,-0.7102567278,0.4607086349,0.790866766,-2.6463127833,0.6424932592,0.0098483729,-0.8743007413,-0.6797338093,-0.8474837417,-0.0208987949,0.5777647814,-1.2434111591,1.2551653376,-0.9499740809,-0.3092944102,0.67605364,-0.402076,0.170271072,-0.800335268,0.3716027295,0.0384463198,-0.6236377657,0.4741362075,-0.4584668027,0.4595449782,-0.3826864761,-0.2100869175,1.0595591128,-0.7780851241,-0.626950791,-0.0353944514,-0.2938016594,-0.6531439094,-0.676856928,0.5637848171,0.9306256007,0.7461804172,0.0857988982,0.7397755851,1.0066046021,0.5087405104,0.6842865724,0.2478520198,-0.2819864846,-0.3965166935,0.0037582212,0.2611652543,0.6169429893,0.1991675377,-0.2156558569,0.3915429973,0.5519047715,-0.2025349965,-2.1704282435,-0.9259883822,-0.2235768035,0.8396698936,0.1904973252,1.0656397913,-0.6109436687,0.5942630703,-0.2580056374,-0.3798864833,-0.1168187677,0.6145776449,0.7224765011,0.1057769209,0.2551988864,0.1557444487,-1.2208830453,-0.1757547206,1.4936652085,0.5675452512,0.2045006188,0.4099113219,1.3300523785,-0.2256781413,0.2141178915,0.6627415875,-0.1962071336,-0.5671054431,0.0248543714,-0.6600473766,-0.8185066547,-0.0599820647,-0.1568465019,-0.1068719422,-0.8347835301,0.9875566774,-0.071797888,0.264142663,0.8530284117,-1.2329161828,1.079554973,1.3014477557,-0.2788842395,-1.0968620535,-0.6740467822,-0.7205906847,-0.2267661663,-1.0218579414,-0.4112433903,0.7624824727,0.9125798621,0.5459293835,-0.0347874974,0.722236586,1.2117433153,2.6529472708,1.4486852463,-0.1804507524,0.2419889131,-0.2044668189,3.8530367271,-0.12993752,1.0681585044,1.2158280503,-0.2442780947,0.3072184014,0.0385499481,0.4242055744,0.0318832401,0.5558900093,0.0730516563,0.6897721205,-0.2060384357,0.9835957339,-1.2324903515,0.9849565215,0.3450686307,1.0402978723,-1.0211673138,0.2489085424,-0.9983056788,0.0681583397,0.7024324789,0.8836838582,-0.7861565702,-0.3496831505,0.9352408828,-0.5722043088,0.4592394302,0.1175243035,-0.6819218999,-0.4561203496,-1.0052718735,0.7517971583,-0.8512403618,-0.1853465976,0.2693034012,-0.0498936617,0.013900535,0.61671892,0.2106712002,-0.4976417086,0.0550754844,0.188916276,-0.8086100012,0.309158275,-0.4740606213,0.0533854844,-0.0621049343,-0.4743687882,-0.2149174297,1.1147281787,-0.282634367,0.9418312629,-0.4524408208,-0.4850570928,2.4320142778,0.1411172314,-3.0012829279,-0.7719306423,-0.1325612798,0.5540501377,-0.3022760883,0.7352739419,0.7135390529,0.7969708872,-0.4600319081,0.0175494057,-0.1770896786,-0.7643946344,0.6285790455,-0.4370626035,0.638951264,0.9941047055,-0.3893850099,1.8950510565,-0.8939600072,0.3827964296,0.5843895602,-0.4108005933,0.0130003575,-0.0974718657,-0.1935837019,-1.0468428,-0.0733695204,-0.7989614832,0.4066628802,0.2361602534,-0.0521802282,-0.7676176553,0.4967818612,-0.588016832,0.7459631466,1.271084684,0.6166639135,-1.3047794527,-0.456094903,-0.4693321858,0.4630231428,0.3764178762,0.5860163789,-0.5653761622,-0.7716054375,-0.9132802502,0.334856197,0.9547324993,-0.1884137218,0.438963584,0.1915687683,-0.8326765326,0.6216976536,0.6672227577,0.1889134141,-0.8242240011,0.1331331497,-0.2649683515,0.8234383454,-0.9309000552,-0.6041240421,-0.1318863413,1.1991539918,-0.2687294283,0.829223496,0.0588147958,-0.8740272054,0.1564080868,0.4111018833,0.8419286693,0.1694716083,0.3136902331,0.6004079604,0.3017525346,-0.5241924081,-0.2459644025,-0.0907981345,1.4028333009,0.7557154622,0.4038390122,-0.1134594734,0.0356806583,1.4314945137,0.1369234186,-1.3706736513,-0.5829904009,-0.7430007658,0.4252412816,-0.2171853536,0.8891873563,-0.0777263455,0.2403921342,-0.3179058812,-0.0729980821,1.1425359337,0.4277382371,0.2444289765,-0.8700355116,-0.6252970233,-0.1292552988,0.4618722187,1.105577606,0.5455680465,-0.1094333076,0.91119691,0.7068422345,-0.3763155136,0.2097395665,0.0484987112,-0.167891363,-0.6211108855,-0.6944842973,0.8735400152,-0.5134302208,0.0367553291,-0.7057035599,1.1574760944,-0.8910342029,0.6865297627,-0.053625343,0.1303916008,-0.0686809475,-0.3533023256,-0.771308781,0.7280309715,-0.7281803934,-0.6113744124,0.2213989017,0.3414568256,-0.3662057967,-1.5102409713,-0.8505903461,0.188770993,-0.5680319915,-0.7695080945,-0.2609141072,-0.0968285165,0.7237963442,-0.0755031891,0.2353309554,-0.4742264729,0.167682953,0.0810338216,-0.3292038001,0.8312087605,-0.2375816488,-0.0627917772,0.7174728175,0.754639423,-0.7477259064,0.9913690429,0.5323717484,1.2747722488,0.3542539039,0.6004378217,0.0307931145,-1.0583468704,-0.1706966542,-0.9280657975,-1.1124936558,-0.2879043414,-0.2326598388,-0.4405538353,0.4773302417,-0.9477126134,0.8087091318,0.0489749865,-0.498454863,-0.0085798271,-0.5039674465,0.6611117718,-0.3267220922,0.2705837005,0.2773095133,0.1630760963,0.8298033021,0.4982321602,0.7181745425,-0.1826410457,0.461120268,-0.8256972365,-0.2709930035,-0.4308209986,0.5980238944,-0.2108573662,-0.5096001791,-0.6673726345,0.0289380848,-0.3775148332,-0.5365299473,0.1437182325,0.8493693667,-0.0961477105,0.1436544428,0.2361205632,-0.931335537,-0.9234677732,0.0676906166,0.6449555452,1.1658061966,1.5667086822,-0.2712403631,-0.7437278271,-0.0246795305,-0.399859256,0.4270046002,-0.0698238851,-1.0767656629,0.0394183792,-0.8682302034,-0.4671274911,-0.894949004,1.0257181635,-0.7351542475,-0.8854909402,0.0612031116,0.2620994197,-1.1055716568,0.2790346895,0.865266971,0.6040799371,-0.1287660251,0.4090981634,-0.2441010897,0.7736967572,0.5148225056,0.2563374948,1.7201379292,0.1595009493,-0.1666618034,1.2132310084,-0.5819974959,-0.3515978066,0.6972458336,0.4944508332,0.9721792978,0.6117227406,0.3469380463,1.2464087453,0.6349718402,0.130406087,-0.032408861,0.7636588978,0.1285004219,-0.0306621175,1.162838495,-2.0443128644,-0.0291278201,1.2049802476,-0.8925605621,0.3578404621,-0.4840271164,-0.9358445347,1.7132116054,-1.9684894314,-0.1834085266,0.3205699057,0.7080944642,-0.4200434086,-0.1213117874,-0.5027214029,0.4674129643,-0.4889119536,0.8528786635,1.369071766,0.179932867,-0.3451236956,1.0826064354,0.0969355792,0.1624509745,1.3477609635,1.7081382213,0.3823136574,0.8785646638,0.0384982225,-0.7636462791,-0.2735050282,-0.3078610523,1.0134390292,-0.6135760153,-0.1873458306,-0.1485059158,-0.5060903513,-1.8190908928,1.0530591796,0.668173846,1.1141346135,0.2908025888,-0.0326103189,-1.0968514667,0.6284768102,1.5578053276,0.8374953864,-1.5210975921,0.2609835595,1.0286550067,-0.8753553224,0.412798576,1.3326943066,0.8680299833,0.427560666,-0.5292856339,-2.6438804062,0.746591826,0.5725175804,-1.000615477,-0.6855954596,1.0584750326,0.4503433888,0.8403141736,-0.4307445057,-1.1777065215,1.3750578701,0.2035844883,0.206051243,0.0569084058,0.9581778634,-0.7911785782,-0.3129801672,0.0668829966,-0.7466421617,0.3669600906,0.0993666813,0.5425934654,-1.058656768,-0.2558753991,0.5639958654,-0.25970619,-0.2504394874,0.3197476015,-1.3409609578,-0.2164452968,0.5862433902,-0.5622161421,0.9456961103,0.0155705514,0.0511135357,0.9695377432,0.4417897666,0.4373035706,0.2435718341,0.8234126339,-1.021138278,-0.1417946982,-0.5920257886,0.6650989271,-0.0598316401,0.1915884151,-0.7775727751,-0.2123094568,0.6620832046,0.1580026211,-0.2359849815,3.8887505463,-0.0440264545,0.5313440186,0.9286917694,-0.3811638338,0.017263618,0.5345184739
   -1.7243676466,-2.9302617221,0.1541231009,-0.4221865914,0.4901577042,-2.0570633869,1.4480686431,-0.5800774102,0.2257112924,-0.8374192981,-1.0609109695,-0.2882421815,-0.3721356885,-0.1443054298,-0.3955541135,-1.2009507016,0.4452663739,0.5286783421,0.311171044,-0.1991751826,-0.8219705435,0.3139426789,0.9103711476,0.0968477755,0.9470168183,0.0348377594,0.0948682711,0.6719875053,-0.7556892248,0.2816691538,11.4966111404,-1.1587871489,-0.9160396142,-0.4973012262,-1.0934676176,0.7306119647,0.7451596968,-0.4640779384,0.2250220493,0.0717879535,-1.3918524667,-0.7224061012,-1.4607883142,-0.297668376,-0.7943791213,0.2706937601,1.7271311844,-3.4859261576,0.3597441952,0.7595120031,-0.9366652713,-0.2613329158,0.3209311558,-0.0822670966,0.3153824521,1.5565567408,-1.0659029436,0.2226708999,-0.4915717232,-0.0538694005,-1.1802443774,-0.4725780825,-0.5236104529,-0.224727757,0.6174966854,-0.2685374736,0.4395655479,0.4118590854,0.937371243,0.1365433583,0.7816177925,-0.3720274281,0.2292741794,0.3686902331,0.5912462475,0.4040985033,0.6530403495,0.4725829741,-0.2245366286,-0.1205672302,-0.7875395567,-0.0216049892,-0.9640227512,-0.4403849305,-0.6180674672,-0.4837904461,0.9207312741,0.269012277,-0.126046079,-0.8870106919,-0.9342424381,0.3765209209,-1.3324554349,0.2607417889,0.1614495876,-7.3700030333,0.4545339359,-0.0848519804,0.8973114193,-0.6466832541,1.0932908038,-0.5343306395,-0.2743749959,0.2631175494,0.4109507484,0.8765813993,0.1419624868,0.4032964825,0.3704768907,-1.3550978801,-0.2857528702,0.1435843402,1.0527199367,0.2155927636,-0.1726673982,0.8115681602,0.2340005759,0.439388888,-0.4847807612,-0.6648225459,0.7608052742,-0.4234963985,-0.0779791732,0.7171450567,0.7559170661,-0.2687017868,-0.0339991098,0.5137902404,-0.2842341243,-1.0632469912,1.1163873369,-0.2126292258,1.0309179536,-0.394175565,-0.2742497716,0.6692439324,-0.2432925588,0.777363911,-0.7560861782,-0.3963738329,0.0368162136,0.6089294917,-0.6031175992,-0.3949992994,-0.1877001886,0.2530127334,0.1285255554,-0.6995316084,-0.0500704453,-0.3067267378,-0.4875496667,-0.4875425719,-0.488827445,-0.3180206391,0.8614378759,-0.3242763411,-0.4525744539,0.2585577344,-0.281089823,-0.1432658766,14.7517889017,-0.2213808607,-0.3654142569,0.6009646601,-0.0649055212,-1.4079200194,0.3800893326,0.4042959878,-0.7412501663,0.8644066636,-0.9135898266,0.1756283814,0.9859415344,0.4987599425,0.1958648467,-0.7822041791,0.6100377317,-5.238118441,0.1516041028,0.3695408963,0.51896028,0.5849271919,-0.3281959774,-0.5770001067,-0.4147371003,-0.4486965865,0.1935831814,0.0622296337,0.0952350423,0.5436824439,-1.0037358685,1.3662300357,-0.9526072725,-1.1804656485,-0.3953543098,0.831841818,-0.735613479,-0.072312652,0.5589265893,-0.1825726402,-0.3276627083,0.2711115957,-0.4733435558,0.4947236135,0.8508022443,0.7287481052,0.7489735513,-0.2237776862,0.211075475,0.2267277575,0.4146953057,-0.8768304214,0.0854282275,0.7580391299,-1.4293822666,0.1221631719,0.1049537733,0.0700953743,0.9276331408,-0.6022874678,0.7656526126,0.5845079013,0.8182206639,-0.5152558411,0.5748754501,31.9144170616,0.6716653462,-0.6961885562,-0.7436814623,-0.5122130716,-1.8613818807,-0.8291507024,-0.8478677449,-0.7999359644,-0.1836270114,-0.0617610887,0.394840088,0.1532438221,0.9622537703,0.3662114717,-0.0441506098,-0.7073077638,-1.6131515737,-0.8122978966,-0.0397966579,0.7240549121,0.0302081632,-0.9677326037,0.8829928484,0.0801001803,-0.5497900231,0.8037608381,0.0849301653,-1.1051586712,0.9349733773,-0.0546826116,-0.3829216807,0.874322432,0.4633025699,-0.1169375325,-0.6087130562,-0.7511069924,0.9015214487,-0.3832643801,-0.6310952252,0.1370826784,-1.0552727207,-0.6483486653,1.0868242751,0.3524156821,0.8130564884,-0.8765859013,0.9483892079,0.9314913586,0.7127069117,1.3550368086,-0.9566319602,0.573031434,0.4466327035,-0.3467903061,0.2778075574,-1.1629135978,-1.0362488111,0.5843885689,-0.1126715056,0.1479963478,0.8914566582,1.3066309089,0.2445821809,-0.9548367833,-0.4316201107,0.74781954,-0.2965785082,0.8544753294,0.9918694222,-0.8969126659,-0.4464103107,1.138671924,-0.2122615433,0.229974429,2.0240129071,1.1095772904,0.8208547795,0.9061420907,-0.2995151753,-0.6729713542,-0.15175384,0.3679663748,0.1427519486,-0.951367514,0.4460795602,-1.3054426941,-0.3359830255,-1.0840547797,-0.1117006146,0.2155446419,0.6855468863,3.4677739047,0.6652222812,0.6733284882,-0.0596356407,-0.4736658134,0.058556961,-0.6336711447,0.1111276958,0.2716425758,-0.6709884392,0.1467855516,0.9780314841,0.3183276011,-0.3248403045,-0.5542671652,0.9948695373,0.8710407406,-0.540504745,0.5719376868,1.67391051,0.4132380784,-0.2862404736,-0.7664685145,0.7925970718,0.1936243314,0.5593749164,-0.3286405459,0.3365176315,-0.0518968755,-0.5667117947,-0.9346420919,0.9879622016,-0.683016337,0.9413845576,-0.1659573465,-0.2975782188,-0.5584765089,0.3361316206,15.3497576857,0.3289347,-0.2944430064,-0.0352263792,0.6421780057,-5.270601757,1.1460801062,-0.3385410306,0.13654954,-0.7825953315,0.9582311896,0.5241908528,-0.2899839493,-0.9323715425,1.4408603375,0.4246485015,-0.4241412497,-1.0036828508,-0.7293099327,0.7408180565,0.9020887503,-0.8498138084,-0.2091511593,1.0204243281,-1.0948797872,-0.639126933,0.8461858575,-0.6506907289,2.135768083,-0.0103906592,0.6481700275,0.9691644734,-0.4847698825,0.9227021988,-0.0453362046,-1.1677293082,0.3913905739,1.3186595108,0.1135868019,0.8284223625,-1.2988516991,-0.3475894247,-0.5615899496,-0.1949249946,-0.1092665175,-0.3335382543,-0.6109390875,-0.5894965463,-0.2996107988,-0.9027428906,0.788745283,0.4073928228,-1.0877081847,-0.9663788004,-0.8324787131,-0.2249345674,-0.627694411,3.416353009,-0.7591722343,-0.031114497,-0.7230428588,-0.6749018599,0.7300766317,-1.1622749434,-0.5272145375,0.4836665695,-0.729772336,0.6610367491,-0.5754201711,0.687002096,-0.5299875441,1.6050081163,-0.4892113613,0.3489384797,-0.0931795609,-0.0656137179,-0.7763754671,-1.847235998,-0.527146284,-0.6518516245,0.7677629608,2.8789541756,0.0527769155,-0.436638294,-0.9083218559,0.1252953025,-0.7906836845,0.8050431796,0.4097298654,0.9441317692,1.7357907783,-0.9015600644,-0.1299280107,-0.821340772,0.4985634793,-0.7824097657,-0.4375636547,0.5521920056,0.1093749788,-0.061558873,0.007996958,-0.6907438079,-0.4432872434,-1.2456709083,-0.9100269774,-0.6832446768,0.2873294204,0.0763644565,-0.067454375,-1.202849675,-0.1660350112,-0.0030041291,0.3642549755,-0.6936950355,0.2729934429,0.8149950565,0.2907364396,0.9098067325,-0.3480869001,-0.440864609,-0.19865731,0.1433642973,0.0457120979,-0.4290465376,-1.1336482828,-0.2562736592,-0.2155851778,-0.8677177533,-0.3458500154,-1.0660973784,-0.0713338408,0.699897392,1.1675198014,1.1925828809,1.6702010765,-0.5060856077,0.8857464661,-0.2917246622,0.4509623757,1.0128310989,-0.1061809293,-0.2438116937,-0.1104333443,-0.6287404508,-0.1256518011,-1.1344066424,-1.0996139504,-0.5127248377,0.7138569742,0.3784376997,0.1034466234,-0.0806329885,0.4399071221,0.12493252,0.2188736522,0.0112444687,0.0065485151,-0.7909816453,-0.3741018635,-0.4791663963,-0.5638723477,-0.3410869181,0.9448303659,-0.96078937,-0.2914979886,0.638739812,-0.0507325364,0.4628749686,0.363200694,0.0807484114,-1.5932412035,-0.1691240193,-0.513117663,0.2573781302,0.5107081386,0.6371927857,0.8125025114,-0.2839945927,0.9435232223,-0.72470966,-0.2803985668,0.8492016054,-0.8191884751,-0.0308387579,-0.2617308485,-0.1603059932,-1.0160429266,0.1888818221,0.2061881915,1.0223516805,0.8458373328,-0.5562928354,-0.0651764828,0.0679975844,0.9575885365,-0.1639055078,0.5536651062,0.0127729154,-0.1277462029,-0.2054799763,-0.2366165048,-0.682833045,-0.8995349847,0.1039695269,-0.089193586,-1.0060797552,-0.6931617969,0.8957047895,-0.0040726935,0.2283908164,-0.8142462297,1.0217222705,-0.5308171445,0.5918678664,-0.1186917531,-0.0906945154,0.5354597887,-0.2454016802,-0.1067782475,0.4721966223,0.6242661175,0.7086628016,2.5982309771,-0.9759276278,0.5995013985,0.2714810384,-0.5083804028,-0.5124653859,-0.4735508846,0.6043160362,0.2511474895,0.1784687654,0.408025844,0.8371904193,0.5893422153,0.2245292264,0.8232823265,0.1951611052,-0.2623885778,0.5005216665,1.0543250233,0.2597077231,-0.8782146501,-0.3557923148,0.122931457,-0.5081133165,-0.9899864082,-1.455462798,0.4086338252,0.7430858561,0.1264656731,0.5219018512,0.0392053877,-0.1371815983,-0.3171409014,-0.3641479625,-0.4251299028,-0.3133291247,0.6578208344,0.240213263,-0.6389808518,-0.101545325,0.1041017828,1.1331602911,0.4963012436,0.4238253115,0.4127893218,0.0409495342,0.5638603702,0.8360698933,0.7204816396,0.1921034455,-0.2347570739,-0.3842063825,-0.0199343607,0.9729472513,0.0888643675,-0.1725701599,0.0250579352,0.0709362036,-0.9355286617,0.2564250423,-0.7119009478,0.1794234175,0.2615637885,0.3114009021,-0.7383744519,-0.9299197319,-0.9275427982,0.0437013637,0.4942589438,-0.9881924424,-0.1592088609,1.3282976255,-0.8774124542,-0.7754549473,-0.2104373671,0.8676191667,0.0546376874,-0.2756706797,0.2815378722,-0.7294218667,0.6225184448,-0.5809949286,-0.4285580859,-0.939550316,-0.233555591,-0.3789048362,0.078773841,0.39542704,0.2289072089,0.6196933682,0.5602750896,-0.2845659105,0.3660474756,-0.7198777215,-0.8990514316,-0.641871654,-0.3275550324,-1.3809619811,-0.3054288682,-0.2610165855,0.1503789134,-0.5574523875,0.9060185627,1.0527112278,0.0063073675,0.2439960954,0.6536298439,-0.0505408306,-0.5194111337,-1.4831650103,-0.3798452899,0.7387856147,-0.4469505013,-0.6226576548,0.8829266803,-0.883648874,0.803406756,0.9390073154,0.6630708629,1.0661999519,-0.9969790622,-0.4999103776,1.1692693485,-0.0276914169,-0.1676327015,-0.1825697014,0.5860180473,-0.2170443845,-0.4606547428,1.3140042836,-0.2955277736,0.1447370881,0.0464750871,-0.3718970836,-0.7950136181,-0.792700141,-0.1674864947,0.2831416905,-0.1894559012,0.8530052612,0.3611385173,1.3411597718,0.4928227548,0.2134497953,0.1471741832,0.4910166284,0.3213695393,0.779807234,0.5865085309,0.3382438646,1.0597250148,-0.1917422187,0.509564298,0.5845212422,0.353949659,0.1416392748,-0.5115611599,0.8028353659,0.2081393188,0.1312786393,-0.6763549354,-0.7448585544,0.6764647947,-0.0498304457,0.0505426271,-0.2681689662,-0.0072287478,-0.6076656558,-0.3296150384,-0.6203065599,-1.0396270041,0.1287917462,0.9647761787,0.6869389308,0.9611208279,-0.3047361909,0.4644997989,0.8725535455,-0.2186765539,-0.6611418278,0.3151101423,0.6404704522,1.2547862582,-0.6601198718,-0.0476498793,1.3330570095,-0.7899196065,0.5048518062,-0.6891654139,-2.4206587018,0.6994692426,-0.7861838325,-0.1634845212,0.3386877305,-1.334877152,0.7913117281,0.225969353,-0.5602716404,-0.1875106465,-0.3946143193,1.0878251324,-0.490156154,-1.1421123245,-0.7437424088,-0.7449965722,-0.5563937621,-0.1651705694,-0.9096888133,0.3385879397,-0.0212614264,-0.3837615887,-0.0127147618,-0.2373021948,-0.575102651,0.2822820943,0.8391654666,-0.0144139339,-0.2116494986,0.2367950311,0.2892694894,-0.4718325761,0.4129853399,0.6553496916,0.5913189921,0.6297460049,-0.6643767296,0.0190861572,0.0438210692,-0.7576533862,0.3953011362,-1.030231577,0.243929042,-0.7409694003,0.5286806715,-0.7944906366,0.5466798853,-0.5350866446,0.5517851546,0.0988182755,-1.7945155778,0.0734423904,-0.1145225578,0.1638033592,0.5794196657,-0.9631081685,1.0404343148,-0.6868145659,0.663932116,0.0084057322,-0.6534965588,0.9818643195,-0.0099397055,0.1964694986,-0.8689986207,-1.2112223623,-0.5787246188,0.6736994802,-0.7360274713,0.5257897641,-0.2546023214,0.5458132258,0.4934716405,0.4727159091,0.333026529,0.6593561852,-0.1184028979,0.3271183201,0.5468417542,-0.5640799506,0.0611090381,0.7479932362,-0.7957581354,0.1402228081,1.2959598522,0.2216857514,1.0214667441,0.7973088404,0.3727226727,0.5150451619,0.3152322906,-0.5952580596,-0.2693873085,-0.5405657787,-0.0331991318,-0.4967156317,-0.5462959509,0.277915408,0.483782661,0.0119317227,-0.8972350026,-0.4087008947,-0.4079387311,0.5290357327,-0.3007138971,0.739705773,0.4296194006,0.8372626066,0.1796309525,-0.5512092879,0.1953057469,0.0794888012,-0.595487602,-0.2438944261,0.7764356366,-0.2895739078,0.4072899052,0.8918509311,0.1649781679,0.2420473313,0.3453849874,0.4161040672,-0.0079066311,-0.7426505929,0.5401954633,0.7349457895,0.3292045416,0.2053673427,-0.4906204942,-0.7289691112,-0.4269053714,-0.3499994393,-0.1346413659,-1.0912793927,0.0343785627,0.4563830292,0.5532756488,-0.7622629041,-0.6907083352,-0.1856841859,0.4412989356,-0.5046564822,-0.3731563033,-1.3410696945,-0.6465506584,-0.7026716143,-0.9630998987,-0.2721986583,1.0581974386,-0.9897642137,-0.1231926911,0.4263904521,-0.2593531544,-0.4724847082,0.8864668426,-0.292159233,-0.1986364564,-0.1113260487,0.0207925348,1.0464864483,0.0732685464,1.122139286,-0.4032017345,-0.2582870104,-0.3787642943,-0.010276198,0.6197388399,0.7937024697,-0.4096782502,1.99339299,-0.2272479164,0.3877999098,0.2298125772,-0.7111296892,0.8980557027,0.6916055683,0.533818276,0.8378914419,0.8354035032,0.7418175506,0.780994894,1.0163252577,0.7193568723,-0.1947439346,0.9367300511,-0.3746104032,-0.1960457597,-1.0604246326,-0.5232091964,0.5288923068,0.4781690579,-0.4652177554,0.6368732008,0.6666993798,0.3873046839,0.805664373,-0.5464452339,-0.1573891874,-0.6778402245,0.7636783169,-1.8124890778,-0.7521457329,-0.8143068419,-0.1738632765,-0.4247571272,0.3227443733,1.5922934524,-0.6974463699,-0.9457665025,0.1215775174,0.8486845747,0.7215560265,1.1467575206,-0.9570985518,0.6029931829,0.6998986875,-0.2363024463,-0.6707886688,-0.231908512,0.4692643931,0.7465011693,0.2153601738,-0.0239513705,0.0518556703,-1.0103149132,0.8405430173,1.1879730189,-1.0606213391,0.4587820189,-1.6552748369,-0.1152488792,0.6005301142,-0.8952787708,0.7343057256,-0.3201567798,-0.5950798107,1.1196760372,0.2977893488,-0.0454371941,0.1007528227,-0.508089084,0.2153557526,-0.7125608391,0.5229881237,-0.9630892163,0.2544195335,-0.3643643249,-0.0448559527,-0.279325998,0.5357917146,1.1251782291,0.0832242865,-0.6031509103,-1.2412013017,0.2541760943,-1.4738083185,1.1048298318,-1.1423355347,0.9180587764,-0.3140752744,-0.6318172151,-0.2791352305,0.0345628607,-0.5633902564,0.6501706911,-0.4223826773,-0.3885873236,0.666523935,-0.674969573,0.0095166028,1.0452243972,-0.660297842,-0.5161332158,-0.5587537832,-0.1937470854,1.5621743995,0.4599954716,-0.5053086719,1.2457804824,0.0850144743,1.0652988513,0.0726390727,-0.7317282663,0.6512181775,-0.3411840242,-0.5068243131,-0.2245321927,-0.9349469031,0.1563290231,0.4856297932,-0.1780891272,-0.2268807829,-0.7572509221,0.5188367373,0.0058820245,-0.6575730114,1.0622951483,-0.5853019579,0.618734888,0.7903374944,0.0264643338,1.0224260318,-0.3592202079,0.7255869993,-0.3074763856,0.1152898311,1.3628150862,-0.2665075568,0.6589776596,-0.5965995499,-0.4448034964,0.4040860031,-0.3184932761,-0.8964846381,-0.6051969258,0.3332972879,-0.2717113688,0.0687717599,0.3588930773,0.0040186049,-0.4783361285,0.8834166268,-0.0321489838,0.4501963093,0.3423880629,-1.2047420335,0.2141076246,1.2426514131,0.468549211,-0.0421137235,-0.6052547968,1.6223129518,-0.3732794171,-0.6382081897,0.0344425417,0.5261182909,-0.2688921067,-0.8016866917,-1.0611015037,0.9852218817,0.4227939104,-0.350591184,1.5502278026,-0.4201756866,0.7913757199,-0.7781500373,0.0594197757,0.8740780091,0.4076356353,1.333148218,-1.6949959184,-0.6637516584,-0.8683353178,0.5618998007,-0.3946072762,-0.6605354653,0.1757433925,-0.9827230676,0.0370410491,-1.0096860142,-0.0807345667,-0.8939789751,0.1676214155,-0.1454539334,0.449561069,-0.9564455553,0.1455366482,0.6631344471,0.519490955,0.9918565805,0.4274495758,-0.9454838167,0.4798833515,0.1093351238,-0.5793201466,0.8149041954,0.7780127688,-0.5203917497,-0.2783054738,0.0287525634,-0.5420984553,-0.025991218,0.8279351469,-0.0467229368,-0.3630106949,-0.1169577984,-0.1889106165,-0.7101344921,0.5669056261,-0.2191424786,0.7208625895,0.5317353833,-0.8247144989,1.3675282231,0.9949189867,0.0234289375,-0.1112996001,-0.7773771099,0.4196762034,-0.7539736659,-0.1324878365,-0.8845644119,1.0805423529,-0.7293965824,-0.2702277631,0.5310400315,-0.7472724742,0.7012565624,-0.8822282232,-0.2213763637,0.7939679666,0.2559462353,0.6699283368,-0.7083071015,0.7911879491,0.7225381757,0.0294472256,-0.2670670261,0.5146111975,0.3576703721,-0.8290380555,-0.3917371601,-0.6380790691,-0.2232765351,0.2718421533,0.7356099259,0.7153144552,0.3630774272,0.4246572023,-0.2720467882,0.3983526658,-0.7709470119,-0.0721785428,-0.2662428118,1.1380300151,-0.9150698669,-0.3430606741,0.7716688755,-1.0162325758,-0.2119255457,-1.1188058367,-0.2944751927,-0.7515198469,0.0055691776,-0.8353420498,-0.6344803846,-0.967923601,0.5032256662,-0.0232081076,2.2257784092,-0.8383449005,0.379532501,0.7320673794,0.2660148202,0.6092872408,0.6533727355,-0.2466606014,0.4872480011,0.6396806384,0.7718405513,0.4897800419,0.1407274922,0.0716547457,-0.8761815885,0.2166693429,-0.5680872193,0.8078156695,0.4925213809,0.0591319423,-0.6708500598,0.3131658157,-0.921994026,0.9603069176,1.0858706612,-0.0045804269,0.9934420362,1.0430688435,0.5667428203,0.2956385664,0.5565776091,0.784083474,-1.0921796409,-0.6834056549,0.5089980965,-0.6225644814,-0.8693019059,0.6595048511,-0.9081109372,-0.4161712092,-1.0959580507,-0.7019096001,-0.872604413,0.7402436484,-0.5973621157,0.8229612098,-0.8749375196,-0.3260468187,0.8165274078,-0.4827101472,-0.1853286235,0.2923983489,0.0129854582,-0.0229907697,0.1182206916,-0.2326435737,0.4499339109,-1.0500477774,0.9290984013,-0.755751882,0.0085496804,-1.1241114163,0.3214165011,0.3117356059,-0.0203003979,0.169925099,0.2424138831,-0.5427285003,-0.5886361102,-0.4616116597,0.4908197848,-0.8778364472,0.0679689225,-0.639871419,-0.3636113935,-0.3980097059,-0.4755566207,0.0305540052,-0.7652620972,0.8045008409,0.5500276148,-0.7302890883,0.7195441062,0.2445155433,0.7118273083,-0.3328944769,0.6842832,0.4273490572,-0.4468802657,0.2363112359,-0.920519349,0.3841515123,0.9192552977,0.9995912651,-0.794361796,-0.1036544135,-0.0289295759,0.5227525021,-1.0355072338,0.933459459,0.4934867221,0.022150697,0.4392994763,-0.7730745345,-0.2239009453,0.8905579218,-0.6600558863,0.7996588027,-0.357548901,-0.640865435,-0.0748533478,-1.0881299025,0.7405246104,0.4967031302,-0.540095332,-0.0194161846,0.6103094885,-0.6068035467,0.041568036,1.0320412349,-0.801495049,-0.7867652741,-0.9180920179,1.0187218925,-0.6972392304,-0.4779859866,0.4505917709,0.689845273,-1.1125762016,-0.7462609416,0.426882175,-0.0307981864,0.8210416399,0.5734785957,0.0948494296,0.8097936679,-0.8038016318,0.1797937751,0.8024925522,-0.8289569449,0.1859118734,-0.5021717487,0.208903122,0.2984951351,-0.225939121,0.3035908581,-0.8331315193,1.7783904334,-0.047795055,-0.2446173613,-1.2026885962,0.0464849779,0.751970385,-0.4791698424,0.8469329545,0.8938378588,-0.4975732251,-0.4847427771,-0.6684202667,-0.0057038196,0.2073064679,-0.6823052654,0.6406713744,0.6687073869,0.9337407941,0.4496759177,-0.079874164,-0.3142569261,0.3067974404,-0.3040048122,0.2764732654,1.0890021408,-0.7711434932,0.1210946843,-0.6764315097,-0.4693989244,0.7502519092,-0.4355107232,0.9502017093,0.4878416125,0.1565347417,0.169149973,-0.9552609024,0.4841012275,0.474948803,0.1847918149,0.944058636,0.5654763433,0.8221212492,0.5125357782,0.2577060056,0.0040569437,0.392484302,0.2251902427,0.5843780937,-0.491917143,-0.710490091,0.1308397318,-0.09921154,-0.1383290425,-0.099332499,1.2191666652,1.1812658236,0.5813083584,1.023852491,0.4792246917,-0.6485085725,0.4212983586,-0.3179614401,1.5082336276,-0.3500414287,0.9557783169,-0.3169126056,-0.3079428682,-0.569545195,-0.1605083235,-0.249617695,-1.0196322692,0.7948964314,-0.5581041538,-0.5426773951,-0.2624358251,0.0493672843,0.4086129001,-0.8359352133,1.6099005105,1.2947068146,0.6033871248,-0.411169572,-0.7501940646,-0.877778956,-0.1904630063,-0.6988438628,-0.059117938,-1.0441076829,0.3293476625,-0.5796813188,-0.9033438769,0.7103897074,-0.0152580989,0.8517279484,0.0144689027,0.8232604277,0.167601734,-0.6760118818,1.0537772003,1.2019548802,-0.4427769472,-0.2737612306,1.364061518,0.2059668914,0.6483083364,0.6707933622,0.7587768652,0.7925606452,0.7346938132,0.9128483981,-0.2119499533,0.4555912689,-0.1465335841,0.9934834229,0.7386290839,0.7245408449,-0.340905335,-0.9220932475,-0.9152544603,-0.0698306193,0.0470147387,0.0165960418,0.4476309502,0.171398917,0.1503394619,-1.3421196384,1.5276953909,0.3983777733,-0.6586402711,0.024300866,-1.0712985354,0.7088668015,-0.8038407153,0.0930055817,1.7926257241,-0.7126432371,0.3958451365,0.8124822808,-0.3814127935,-1.5336496609,1.0197672185,1.071322009,-1.4838046705,0.5753882667,-0.5507004003,1.0174520655,-0.3110274512,-0.5790706452,0.3515216391,-0.0890176092,0.5366960844,-0.2240571929,0.1545604075,0.8725268199,0.8786760171,0.0971341927,-0.3590932341,0.4988633239,-0.0720664374,-0.0283143317,1.0167545771,0.0355842514,0.1001598154,0.141219721,-0.8311245914,0.2525021957,-1.5076004551,-0.5764691265,-0.7588546301,0.3565150738,0.4903651221,-0.1238142554,0.310752105,-0.009797403,-0.3220139994,-0.6671370728,-0.3356023427,0.5604068747,0.0926607066,-0.3798330113,-0.7461749487,-0.1202680282,-1.4108231709,-0.0318009595,-0.3866473608,-0.3072172149,0.6307467818,-0.2476923291,-0.5279005688,-0.2004166781,-0.2680692329,-0.3504829921,0.8378645083,-0.0734493352,-0.6353652113,0.2201398717,-0.8903866321,-0.1446294209,0.1971938856,0.7507933936,0.1813832496,-0.8062274785,0.010279007,-0.6603612448,-0.6645338689,-1.4546150406,0.3339274135,-0.4972992772,0.7948262118,0.2982327194,0.3839643892,-1.2962959357,0.1222536713,1.3050028911,0.5511920838,-0.1083714383,-0.4915043598,-0.1482805662,-1.2370332825,0.7494585534,-0.5689911524,0.0056698121,-1.2579392096,0.955318442,0.0262854554,1.1258045245,0.9767780777,-1.0397740683,-0.0299121886,0.8652359639,0.3635463491,-0.0230882389,0.8862059789,-1.0006121446,0.8951067437,0.2978315312,-0.4082922613,-0.4666246427,-0.3581980858,-0.4647575756,0.0704923876,-0.1389706389,-0.3868011722,-0.4650762618,-1.0231587419,-0.4201395176,0.1474762068,0.3474504095,1.3965448087,-0.0807980846,-0.8493917552,-0.1994071756,-0.3848950145,-0.9870842646,-0.3413884162,0.8154139381,-0.8638003153,-0.3288175365,0.6509872202,1.0891731451,-0.5790038609,-0.4169118942,-0.1531763636,-0.2849588943,0.9227494327,-0.1645298246,0.3906681417,0.2766437238,0.5690286634,0.5554586656,0.8767406973,0.8483386975,-1.0731338976,0.0837753385,-0.4577206911,-0.1906454159,0.2868717103,0.86644998,0.7459813537,0.6129845263,0.9601082615,-0.287074403,-0.1121052216,0.2743103799,0.2772080759,0.0986896308,0.0411953331,1.001483759,-0.3502197906,0.1992160152,0.7522361593,0.1981787486,-0.730069769,0.8928490294,-0.5214784034,0.5304305247,-0.5011536346,-0.530826689,0.7884693774,-0.3649707249,0.6097947779,-0.0235348477,-0.8471464971,0.2262893543,0.5740917738,-0.931339304,0.0854632832,0.2526220526,-0.3830255121,0.7802674893,-0.5048324434,0.5051516257,-0.8419511653,0.9625596116,-0.4677884787,0.9481918962,-0.7058658444,-0.2005669584,0.5588372501,-0.7745543926,-0.7698933235,0.1885224813,-1.2212012263,0.2838025371,0.6012458743,-0.2702088374,-0.5087023043,0.044421656,0.4129421688,-0.3766899315,-0.8968521317,-0.4468247926,0.9327763554,0.6193640981,-0.3653169674,0.4800993547,0.1521658657,0.637224149,1.0860637139,0.6720484399,-0.7530775993,-0.9075927751,0.474669271,0.2723624292,0.7986592399,-0.5219199504,-0.4660918669,-0.8348515602,-0.3500356843,-0.5476505788,0.1654296911,-0.6893823949,0.2011574465,0.3640710155,-0.6089517997,-0.2884980885,-0.7690719195,0.7140602644,-0.2084857815,-0.9979881544,0.9818240014,0.6264102292,0.4671006729,0.7903855008,0.3868492689,1.0794990618,0.9466556494,0.0897238906,1.6581378397,1.0145131465,-0.0056002761,0.5124576164,0.6125959156,0.4332314035,-0.8168189339,0.0071776007,-3.0712323963,-0.7231309296,-0.3393970161,0.2639148847,-0.3254229025,-0.774857615,0.7031539491,0.9031772516,-0.705901384,0.3649917494,0.1285187275,0.8048999382,0.2401937064,-0.2716088951,-0.881483982,0.4060799854,-1.0442304596,0.7024730277,1.0645709919,-0.157459938,-0.0733795811,0.6631636675,0.4008471475,-0.6598892361,-0.9895632363,0.6274498475,0.3104492114,-0.2989295392,0.9190589589,-0.5271971708,0.7748205444,0.0977990219,-0.6304917942,-0.077056624,0.2651932076,1.1625384243,-0.4869615257,0.4127275996,-0.877011168,-0.2880147632,-0.8099445943,-0.1311545486,-0.1747269445,-0.4615940857,0.5919659966,-0.262906835,0.0492865387,-0.8224652775,0.5942004943,0.2909145056,0.4072474701,-3.2134533764,0.3313604621,0.4585397894,-0.3483075089,-1.0333449763,0.1129099369,0.3514681331,-0.8045230541,0.1745254095,0.819939424,-0.0661935953,-1.0676230208,-0.4630797774,0.3970853958,0.7486247025,-0.9734749799,-0.2236043321,-0.9481073378,-0.2893693539,-0.2198607804,0.1950408786,-0.2084456964,-0.5332967448,-0.1274208464,-0.6351592114,-0.1447278024,-0.0567349704,0.9816003788,0.9012688897,0.8542294306,-0.6659975384,-0.3059233799,0.9727822207,-0.5109455957,0.8599026292,-0.0254369143,-1.0327187588,0.1592627066,0.0024276831,0.0714086967,-0.0048617393,-0.0516407369,-0.9646417354,-0.47383072,0.2988460673,-0.6296188597,-0.2671526396,0.2575132839,-0.3530963064,0.0614990912,-0.4351700455,0.5809518586,-0.3986087833,-0.1125492476,0.8587722318,-0.1565953023,0.1371560153,0.426572931,0.1767683579,0.8452579816,1.0086508526,-0.1573339354,-0.1141012139,-0.1207459459,0.4841665972,-0.529913069,0.7229415094,0.5233923292,0.938101069,0.049691254,0.1308455146,-25.8827658207,-0.0520173211,-0.8683914285,-0.1348724812,-0.7956116974,0.1766214327,0.7202324447,0.8638648431,-1.0288664064,-0.9257426776,0.5237392066,-0.5122908052,-0.2166088894,-0.0871754252,-0.6646036594,-0.2876604132,0.3026104115,-0.1552074848,-0.1740232069,1.0637346409,0.1561404204,-0.008470375,-0.3766100883,0.1497157527,-0.2905249075,-0.9194085536,0.6570159854,0.5690205268,0.0599277658,0.0571444024,-2.7943869411,-0.2061875031,-0.7136108683,0.0467530465,-0.5778363481,-0.6278485706,-0.7371540906,-2.0186279704,-0.2240387315,-0.3130442699,0.065469336,-0.7340141651,-0.2345165252,0.3506409252,-0.5929932061,-0.1876467532,0.2900053542,0.0157468793,0.7656502794,-0.1397511331,-0.7828407487,0.1299648719,-0.4440752828,0.9722690639,-0.7996174766,0.1558040369,0.5595200145,-0.8198140069,0.1671372051,0.2036176994,0.5674390008,-0.9139986903,-0.054680316,0.8531831449,0.3784408146,-0.2515648572,0.5640581696,-0.983491014,-0.6337631956,0.0215098037,-0.4181406345,0.4167459707,-0.5963669536,0.507388435,-0.3262512531,-0.6265637265,-0.8630633118,0.6850717876,-0.3566437215,-0.4486926277,-1.6931494206,-0.5241483337,0.077556647,-0.7913591519,-0.1996184748,0.0212608753,0.7478709255,0.2140537522,0.522662977,0.2084503118,-0.0968886799,0.33533249,-0.0214145294,0.6099606979,0.311957617,-0.1359553395,0.7794262023,0.6335902062,0.2532934588,-0.5104402591,0.4107712089,-0.3277093934,0.9051517079,0.7101285972,-0.4301457332,0.2024124016,-0.2100364408,0.8620977575,0.0301634954,-1.0090228974,0.6274556523,0.8684465231,0.4265910483,0.1782889596,0.3634832333,0.8096381217,-0.448815789,-1.3510191713,0.3989370081,0.6126055147,-0.8370395212,0.9813256366,-0.1913318793,-0.5208982359,-0.5156792223,-0.9149442042,-0.5537640149,-0.5123620843,-0.4960012476,-0.3094749835,0.0181538393,0.8957233767,-0.9857569478,0.44660074,0.8733056119,0.4570162023,0.1337487158,-0.6782743903,0.0336613236,-0.3232527829,0.4131671501,-1.7408140191,0.5882657431,0.1305125577,0.0065083561,-0.1132500922,1.2723204362,0.4979012911,-0.6312851281,0.1011624538,-0.9642612953,0.4013913238,0.3904889423,-0.944044061,0.1370575964,-0.7996470816,-0.2909237872,0.5656608891,-0.1989898904,0.4823581337,1.2360001093,-0.4773483167,-0.489778364,-0.7684218553,-0.8736357469,0.5005666588,-0.5065477258,1.3556131246,-0.5888479125,1.0000108946,0.173537273,-0.2753577091,0.147734058,0.9220830458,-0.1618794864,-0.7885614555,0.5339046147,-1.1173562785,-1.1826018556,0.7249688589,-0.2760334541,0.4505157618,1.1259815371,-0.7179744004,-0.6694503307,-0.6704953895,0.8231765188,-0.0504687526
   -0.9265844435,0.3583204418,0.1862139263,-0.6050742417,0.0698648029,0.0346365761,-0.7534832709,0.6655938986,0.6151762361,-0.0205711081,-0.1094315654,-0.4217710858,-0.5010095913,-0.4666830036,-0.6718308674,0.6797572617,0.1469093222,0.8407951763,0.4808905422,-0.7160946949,-0.8256339666,0.2295941592,-0.3383353947,-0.922065255,0.7148239966,-0.1698252532,-0.6168235513,-1.9881876112,-0.0942083277,0.1736006859,-0.4463052638,1.146328866,-0.3950826563,-0.7660327217,0.3981777975,1.1311539368,0.6377088673,-0.1754362628,0.0238077456,0.8643342028,-0.0899511546,-0.2416413424,0.8924231314,0.0601073037,0.353159425,-0.554156391,-0.4463429077,0.5305964687,0.7155225693,-1.7871891209,-0.4766753641,-0.7417626409,-0.3504532879,0.1787157604,0.2485492117,0.4747600863,-0.1245711306,-0.61241778,-0.5334968722,1.0388597992,0.3032507782,-0.5683258628,-0.5960678141,-0.2997754066,0.4326794094,1.7820334511,0.958910081,-1.1009437051,0.3669866029,-0.5417957451,1.1251236049,-1.5590761415,0.4964456846,-0.8494651944,0.3774076398,1.1995266534,-1.2078247599,0.6193818612,-0.6788457647,-0.1029537056,1.089639625,0.8508191273,0.8612618882,0.1080500867,-0.2584941065,-0.8398407476,0.3242893743,1.4046464355,-1.2115047024,-0.2339266234,0.3816852624,-0.52993067,-0.6071803343,-0.0066740461,-0.4208676947,0.3553026275,-0.7196752515,-0.6983429009,0.638932698,-0.9912175257,-0.4707035999,0.6367257895,-0.4407955149,0.9755651339,-0.4364140021,0.4000772076,0.9980714673,0.2743217912,0.0784197701,0.2064498364,0.6875268008,1.1581741267,-0.7544526068,-0.7535694356,0.1576640257,-0.7993609736,0.5833617393,-0.1585296375,-1.0191231138,-0.7169195384,0.8241957254,-1.1182522388,-0.97530757,0.5849600725,1.293372017,-0.2424682126,-0.6573647563,1.221316172,-0.9150972363,-0.1215851096,-0.5925100124,0.0756295835,1.1374226188,0.5078612432,0.6667872964,0.1664636522,-0.5741291296,-0.415354734,0.6074365215,-0.2520660694,-1.3570122515,0.8202745007,-0.3480953959,0.586254923,0.3561185488,0.7435330176,1.0651760363,0.8255460469,-0.3122995818,-0.4597709664,-0.9734659641,0.2431198715,-1.0110792813,0.66460049,-0.2769982689,0.5198177854,-0.7653335293,-0.5882502252,0.8966357284,-0.0971443001,1.3498790998,0.0631580278,-0.1850704254,0.1986894994,0.4176398361,0.8204825729,0.597719979,0.9999586686,-0.3804512873,-1.0112439827,1.1208411312,0.4729524568,0.4876607085,-0.6254428059,-0.1593396432,-0.5943022971,-0.0304376202,-0.3918329752,0.1366125413,-0.8741582997,-0.6759923512,0.4839792293,-0.5024324744,-1.1877530371,0.0423403704,0.9136961331,0.6794482043,-0.1312057245,-0.4657195702,-0.4188533565,0.3054449276,-0.976465158,-0.1906710657,-0.5382579209,-0.4338990527,-0.3544021394,0.6218342033,0.4307772835,0.4517645252,-1.2053335427,0.3937844064,0.0206603428,-1.0821808531,-0.4132167786,0.2512949213,0.1223318651,-1.0070645206,-0.0023418177,0.4085003811,-0.8793871563,1.5699736701,-1.0616653652,0.8782647584,-0.7998561909,0.198976214,0.1170765183,0.0632801433,-0.5897122939,-0.7090125935,-0.3543410255,0.4333087485,-0.5637119165,-0.6107237861,-0.3826892521,-0.5218751404,0.8860202347,-0.9457738952,-0.329924825,0.2705049485,0.4403537471,0.6297315151,0.7777970974,0.8460360381,0.8279434938,-0.9236445697,0.3300581394,0.294125917,-0.7900859279,0.71787316,-0.3014639397,-0.2173769119,0.9984789989,-0.7066125184,0.9942212479,0.0779574015,-0.7335429952,-0.3854656907,-0.1944657281,-0.3682695911,-0.8293949679,-0.8913230699,-1.058917698,-0.951184454,-0.7846629433,-0.5522644278,0.500784373,0.2393609376,-0.6738398244,-0.9995396231,0.3946748476,-0.954970285,-0.3699445738,0.6544015285,-1.0282218379,-0.9108754824,-0.9135235291,0.5606387964,0.3075959685,0.5410324958,-0.6479549732,-0.8287274375,0.6755016747,-0.3086018897,-0.0006534305,-0.6403628919,1.0979097814,0.1042491041,-0.7696711702,0.8001770919,1.9985561666,0.6355942762,0.1175822609,0.5332693285,-0.4237720373,-0.5356578925,-0.8965921721,0.9238925445,-0.0793491485,-0.4353253944,-0.0883967016,-1.2353963438,0.2298140459,0.9141183879,0.2790564993,0.2277680131,-0.6699033294,0.8494425829,0.1680655348,-0.8883201266,-0.7630470099,0.8720205484,-0.5069707972,-0.7922159554,0.2724361217,-0.2479706821,-0.8256733289,0.2344185274,0.6785846586,0.7917561885,-0.3185570312,0.4836462811,0.5934714463,0.4292655003,-0.1600601068,0.0518492997,0.4466450233,0.425757222,0.0565400157,-0.1775417528,-0.1225713504,-0.5243941508,-0.2821247938,0.532410575,-0.5625725669,0.5653713135,0.1120344035,0.3170786917,-0.1455917437,-0.2256781015,-1.0447900558,0.3823183426,0.8528830041,1.001398373,-0.9730627709,-0.0390359344,0.703955001,-0.8841215297,0.5979169738,0.5493772494,-0.7343922301,0.3916117058,0.3985699743,2.4138550647,-0.8658158875,-0.7951707781,0.0600234223,-0.7875077659,-0.8830415462,0.6047397875,-0.9034306373,0.1074233802,0.1513541408,-0.724236285,-0.1876465783,-0.7386519177,0.6487938759,0.9630551724,0.3833385162,0.4270195649,-0.2560307328,0.9614072389,0.0315194855,-0.677333207,0.2582008379,-0.45943375,-0.8036021058,0.1886960884,-1.0980956172,0.2361283186,0.6149279799,0.3012088218,-0.3384918661,-0.4060181498,-0.4871405126,0.2995302706,-0.3552407558,-0.5564952967,0.1081820096,-0.6225265961,-0.7666599512,0.3455786144,-0.3783450799,0.3309054981,-0.4089597712,0.0466316144,0.0946258179,0.5625164396,-0.2180207176,0.1845262821,0.363926918,1.0097223147,1.5587929936,0.4881199422,-0.9074285788,-0.2307551423,0.3566192191,1.0132188764,-0.5820200392,-0.2665475592,0.4693445685,-0.5625202682,0.4248618617,0.0099380599,-0.8803490839,-0.4000118791,0.4646050348,-1.0031796724,-0.884623788,0.6085106733,1.0048096839,-1.0736447937,-0.3489246383,-0.9648017723,-0.3593792902,-0.1244015671,0.2902539095,-1.1915809447,-1.3600458581,-0.3914932555,0.0592403066,-1.4150549955,-0.4093002498,0.6307914924,-0.8972721652,0.5928726688,0.9635858908,0.5095929286,-0.8470916878,-0.4859203761,-0.8792359979,-0.7391228337,0.3681794156,0.541709061,-0.7044368834,-0.7204745507,-0.7261750557,0.5305029956,-0.3025738677,-0.7127507979,0.3496924454,0.4099349467,-1.0861694076,0.1910858015,0.0751423465,0.5717190808,0.7786138809,-0.8329076263,-0.0620099865,-0.6314069923,-0.8339294652,0.3577168951,-0.467480518,0.2610262444,1.3149839079,-0.6397940741,-0.382387372,-0.7169680588,0.1350487532,0.7640227059,-0.2046835225,0.650928641,0.2674176037,-0.3512728605,-0.1106997932,0.2428585892,-0.0308407724,-0.5404875596,-0.4982468245,0.997654731,-0.1740461936,0.6305007266,0.2566141398,0.6447832147,-0.8166618344,0.5592959536,-0.0355444769,-0.6928718125,-0.9680021255,-0.1052452328,0.7645364625,-0.5573734491,-0.7802352652,0.891359705,-0.2359808593,0.7274170155,0.3494477267,-0.3019065728,0.4418736841,0.6565424013,0.3741813729,0.7469503053,-0.5540387952,0.715832071,-0.484099666,-0.2144037666,-0.2939494518,-0.5015529986,-0.2443299524,0.0246641068,0.1388511375,0.2343121546,-0.7657181968,-0.7174152735,0.2121765835,0.597668507,-0.1624642664,-0.1292560961,-0.2553934115,-0.5695815847,0.5565472015,0.0969435104,1.1211382305,0.8800924616,-1.0589079601,-0.1270043312,-0.3334932524,-0.5831449648,-0.898586844,0.970500513,-0.1138749903,-0.0806628044,0.9516788402,0.3973797686,1.1724997486,0.1022318664,0.2103481662,-0.2618754637,-0.2993799115,-0.4812177613,-0.0414397236,0.5196800862,-0.9135148343,0.1850633486,1.4003772181,-0.7239983133,0.5631284294,0.7502453913,-0.2592200327,0.5887794585,0.2412092217,-0.8122261966,-0.3530948982,0.7748592291,0.7040870124,-0.7829096166,-0.7487564934,-1.0707073782,-0.8092168056,-0.271773323,-0.5246379673,1.0234105715,-0.0954969884,-0.3771806654,0.1659142152,-0.4095556735,0.8385478904,-0.3082829781,-0.7068779544,0.7300445228,-0.4501348312,0.2811911703,0.108746722,0.1138134278,-0.5947187742,-0.8934641853,0.6418721315,-1.0874952577,0.7191517882,0.6072556568,-0.5164427249,-0.6652371508,0.1463691199,-0.9794360515,-0.8737130263,0.5178136346,-0.1467217346,0.6502708751,0.1615595201,0.1772188965,-0.1702045657,0.4164573155,-0.82767576,0.9122286616,0.3110191446,-0.6522683452,-0.6788920766,-0.7298799343,0.4063078622,0.811264201,-0.9122656233,0.2634197959,1.0165154888,0.1870820274,0.9359121888,0.0784550898,0.2096475291,0.9416029108,-0.9753216746,-0.6438278829,0.1697031841,-0.2469502757,1.0630475107,0.3128379846,-1.0571542406,0.3817257847,-0.2670613529,0.8114908495,-0.6478501246,0.6857589236,0.0712780658,-0.1137031427,0.4905680344,-0.4208099352,-0.6527953737,0.5571471222,0.0098182071,-0.9625704775,0.7079212663,-0.271124038,0.5456214494,-0.074328946,1.123624525,-0.8024053613,-0.5913165706,0.0607368104,-0.1649720134,-0.7163955531,0.2113957839,-0.775705782,-0.2295876283,-0.0973591342,-0.6093150763,-0.0219861337,0.4641081413,1.0838977148,-0.0704660876,0.7107063906,0.0274768679,0.2366462243,0.2634893887,0.6263275637,0.7348899697,-0.1290605857,0.7284075932,-0.0436344163,-0.4952494804,0.5235688969,0.157698645,0.5250750096,-0.1151133614,-1.0133534127,-0.0907711675,-0.7788878552,0.3116986999,-0.4630632556,0.5865268247,0.9144705619,0.107543165,-0.0931447335,-0.307801836,-0.9030014625,0.4095557748,-1.0130877184,0.448199186,0.56395957,-0.1602473586,-0.7546036007,0.0475177236,0.9245276186,-1.3280307295,0.3261445329,-0.7940138646,0.682443647,-0.5156182284,0.3333131701,1.14405,-0.3849489975,0.5638767001,-0.3819725576,-0.4265275387,-1.008225668,-0.2283837848,0.0735571599,1.0095683722,-0.2117023853,-0.8203964765,-0.5216300813,0.6913390748,0.2520339098,0.5955192517,-0.8904312751,0.6033236459,0.3354566916,-0.4348274773,0.2300853149,1.3066035297,-0.4949537025,-0.744009239,0.5064569675,0.5724500625,1.109721176,0.6042677675,-0.271556235,0.8117866488,0.0143402283,0.0529314372,-0.7262691584,-0.0328071607,-0.031055861,-0.4493919145,-0.5939743527,0.0994146717,-0.0339526791,-0.5957588231,0.0782545592,0.0148889567,-0.5512265476,0.1377682845,0.7166916676,-1.2006272425,-0.9898447484,0.7917584484,-0.2474632107,-0.1998439647,0.3913115326,0.8521064385,0.7914968588,0.4949840385,-0.2893269819,-0.6743492958,0.2631595726,0.9769688074,-0.1903729461,-0.7628354425,-0.8982457668,0.9588550714,-0.6069244485,-0.7827860014,0.0918120734,-1.0234403198,-0.7403724592,0.2802113114,-0.1878528157,0.3147919208,-0.728478911,-1.2500801344,-0.6996488137,0.7665840168,0.9162686133,0.7296423084,0.135769948,0.2483441327,1.0269997443,0.3671763521,0.1386399636,-0.4304001859,0.552278883,-0.3707218235,0.6743553548,0.3016598585,-0.4307616484,0.890685089,0.4158193166,0.16184366,-0.6443162005,-0.6362963981,-0.2768788355,-0.5269179569,0.0911650233,0.8354556179,-0.8750359766,-0.126246621,-0.5546617322,-0.5095897246,0.819090001,0.8464737492,0.3018536779,0.6936083335,0.6971463529,0.4258359923,-0.5898570544,0.3713578056,-0.8099187211,0.0078627359,-0.6121714576,-0.5075059445,0.9225152902,0.2525965377,-0.5241484204,0.3914068143,1.2068031853,-0.1244675239,0.1642362355,0.2652562002,-1.3718387955,-0.7910561118,-0.8737692951,-0.932407813,-0.0384252658,-0.8568844341,-0.6527509698,-0.2051612065,0.2405334079,0.0722128078,-0.4174221605,-0.7252267761,-0.8108457571,0.4109239778,-0.1284143066,0.704327529,0.9678819725,0.3916220899,0.9009049397,0.0825786854,0.625772668,-0.3415794918,-0.2911067076,0.4290798972,-0.3317710242,-0.4597568449,0.0089581133,-0.0031925385,-0.548936275,-0.3105381775,0.8265048724,-1.5179155881,-0.6855668118,-0.2466511726,0.4805746338,0.7170993349,0.4998592098,0.7111754299,-0.3418041725,0.6858502111,-0.6763680147,-0.9570595776,-0.1745205846,3.0301860066,-0.5888085233,1.0678734539,-0.7548158879,-0.4069689299,0.9439069616,0.333624871,0.9717249834,-0.8146458692,0.7203666409,-0.0735417294,-0.4111322604,0.4948784437,0.7406116427,-0.0276171631,-0.4507265379,-0.0076121276,-0.0317110931,-1.0233115925,0.4187986659,-1.2989362137,-0.4792160862,-0.4667889865,-0.6500322304,-0.683254742,0.5582892652,-0.8689756738,-0.0664491908,0.3769899812,-0.7179197441,0.6573102495,-0.4832222899,-0.2657552947,0.7002404379,-0.6185053545,-0.9061192273,-0.0523539936,-0.535638972,0.6260635812,-0.0519886224,0.1188410101,0.6354908935,-0.0528794883,-0.5059462055,0.0185039024,-0.270573068,-0.7846839991,-0.2687979563,-0.6305582967,-1.4197544727,-0.2485395137,0.4116259033,0.1431044064,-0.533571044,-0.5854182289,-0.8297851558,-0.6610288015,0.2649457223,-0.4537456607,-1.1543569932,0.918931496,-0.7637640498,-0.1062031089,0.7829226041,0.0247007838,0.9855960052,0.505688278,0.008285653,-0.5159476644,-0.1667850872,-0.2167343379,0.1224621581,0.5255359745,-0.6496900055,-0.5984583806,0.6935601413,0.6190457778,0.5673073239,-0.7223068746,0.9021345498,-0.3716897559,0.0272453845,0.0804431564,0.2917567366,-0.3086497129,-1.2941084584,0.7495273086,-0.5239352908,0.597729316,0.765040321,-0.0382497481,1.493220942,-1.6372296087,0.8065692697,-0.9284079832,-0.3522369067,0.0376232894,0.0046176991,0.56072476,-0.6533762428,0.5688156627,-0.0851060504,0.2770515408,-0.9179642133,-0.1907766264,-0.7551957308,-0.6037865375,0.0256706345,-0.6986921561,0.6190868008,-0.2275918707,-0.0868626628,0.5920922411,0.6168125063,0.2956744279,0.0751566675,-0.0693283071,0.8946481664,1.1987299392,-1.034745776,0.1439512902,-0.1423460722,0.4222375276,-0.0979728843,-0.4190344886,0.7163458689,0.3107719664,-0.4752516167,0.7436217309,-0.036992026,0.094818125,-0.6018798083,-0.6751569974,-0.2267586039,-0.0059510819,-0.6070618872,-0.2889860875,0.5720719718,0.8790858392,-0.940741341,0.7267387975,0.9388803363,0.0378272187,0.4256257529,-0.5852519008,0.9850903195,0.0903150915,-0.7058303759,0.238801187,0.6898394215,0.7096225754,-0.1636821483,0.1715860828,-0.3423761552,-1.1936751746,0.5807940057,0.5628771227,-0.3052810906,0.5417701289,-1.0249767915,-0.4583195246,-0.072428735,0.0209366432,0.6332622829,1.0584429456,-0.4078620776,0.7841794961,-0.9123880114,-0.8710581876,-0.4047152353,-1.3655092345,0.5464938995,-0.3854190184,-0.4695229138,0.6553535459,0.5163228837,-0.1138783717,0.4487919417,-0.6818254303,0.45693482,-0.9174271623,-0.9056332533,-1.9484891285,0.3529780398,-0.7741232953,-0.1698194356,-0.3089346819,0.7138151724,-0.9134539392,1.8395943692,-0.0809246515,0.9326952078,0.1886999634,0.4081390886,-0.0791426334,0.6988201737,-0.7241703847,-0.8198099408,0.5016035717,0.8395504758,-0.911522769,-0.4295258235,0.85857599,0.7413270926,0.3650122678,0.5257325347,-0.5856508825,-0.519199911,-0.3960440002,0.5544583337,-0.6466354944,-0.9718820125,-0.6199146151,0.4491943621,-0.4339915259,-1.3207547408,-0.4977480974,0.0043758437,0.7928370107,-0.0590398919,0.9921779263,0.7167752042,-0.640911536,-0.3385697594,-0.1116461579,-0.2907661641,0.0751339786,0.9588259085,-1.070661207,-0.6780778357,0.5487424097,0.2970255951,-0.1146050709,0.4477487911,-0.4318299388,0.7623827334,-0.2033406481,-0.2622352484,0.717516288,-0.0604902257,-0.5390109752,-0.7678805424,1.0916138045,-0.0464222366,-0.3466052939,-0.2041726983,0.6597484109,0.0988156698,-0.9015952055,0.1883148483,0.8541347682,-0.3875177962,0.7642843554,0.6300417313,0.0740191572,0.534441709,0.119844129,1.2551299655,-0.1691529651,0.6199603177,0.4960783711,0.3310564903,-1.0186438085,0.0209535766,-0.6523146216,-0.9418045084,1.1503289009,0.9077353682,0.5085798335,-0.7757981395,-0.4655392328,-1.0147214131,0.122344788,-0.0916167192,0.5841874652,0.6594482817,0.7746800907,0.7295898353,0.2998675564,-0.2509945354,0.8814112889,-0.514826897,-0.6856071284,0.2064897762,-0.0320263292,-0.4661745884,2.0326309462,0.0773979523,-0.6484024651,0.2656865746,0.3835846992,-0.6296258536,0.1986522614,0.9360979935,1.2099512198,-0.6946750268,-0.2952980433,-1.1345132018,0.3319698939,0.0052259035,-0.3858420343,0.1297321683,2.9758117908,0.2979060697,0.1960861775,0.9294663497,-0.7325064485,0.2669901103,-0.8630652918,0.6280128519,0.5780575371,0.920842623,-0.1408370954,0.0079301508,-0.1798178752,-1.0002731839,0.3059116737,0.5563162881,-0.7438630205,-0.2726136273,-0.1816221913,0.5744223701,0.7779841089,-1.3631140354,0.0681816841,-1.5385172493,-0.5583677038,-0.3088601231,-1.0897470556,1.0121844069,-0.4805725914,0.7989118535,0.7569934246,-0.1188202114,0.8215010544,-1.0692547207,1.0586084718,1.081331045,-0.4379435842,-0.3163194801,0.7540603975,0.6816545036,-0.0281880889,0.8734752297,-0.9339294753,-0.8350629906,-1.1267038056,0.3689520167,-1.3874263041,0.7771570694,-1.0881962907,-0.3721789686,0.198986652,-1.1390980709,0.5363044246,0.6930451433,-0.2160900683,0.3014447363,-0.9193849205,-0.7945345894,-1.3543274245,-1.3673792055,0.4922954981,0.2312079322,-0.3024936418,-0.1300042981,1.2607812441,-0.6587137152,-1.4492436156,-0.7551299088,-0.8683994811,-0.5805874792,0.3595895153,-0.6126077438,1.6263964306,-2.3617252458,0.6277275129,0.4106421223,0.7101700955,-0.7076720392,-1.2032806162,1.3182564139,-0.1736527714,0.5165120941,-1.0023929353,-0.6486043876,-0.5515799064,-1.0261849215,-0.3534539654,-0.1201951907,0.9937948989,1.5489132228,0.2016038045,0.5328454069,-1.1504558561,-0.214823109,0.3285971059,-0.1156220811,-0.2865151156,-0.0645629595,-0.2346833205,0.0410010198,-0.6735709096,-0.4518926179,0.0666550419,-0.8116704731,0.6118344786,-1.1806707277,0.7400530114,-0.1675115411,0.203259097,-0.341452637,0.0706268406,-1.0278849592,-0.6567902697,0.416712985,-0.9975154435,-1.4373533704,0.5808079023,-0.3700290393,0.8693806529,-0.1326072138,-0.4877109655,-0.0217910968,0.4180955253,-0.3448117191,-0.916918383,-0.8213211343,-0.1796808131,-0.2581201593,-0.2591043714,0.5721558153,-1.2898592871,0.8270988941,0.379746689,-0.3969431385,-0.3722705074,-0.8179992621,0.5865683429,-0.8363586167,1.0513203156,0.4913282341,-0.1007242695,0.7427541451,-0.4757409436,0.8044701165,-0.2219194198,0.1227086086,0.2622476866,-0.8346513272,0.4721527941,0.6661011919,-0.3392960261,-0.4548817563,0.0122366969,-0.1807762758,-1.019304205,0.554093723,-0.7790494754,1.0385534831,0.9731364164,0.3912301636,0.7376083278,-0.5340518066,-0.5099233681,0.4445253088,-0.2751158563,-1.0020546676,-0.4838542648,-0.2568922715,-0.4595582015,-1.0082177526,-0.8234983391,-0.0266515073,0.4280833897,-0.1625397099,-0.390126279,-1.1278071064,-0.3328751523,0.2442725078,-0.7940817929,0.5015770298,0.4692089378,-0.3482601122,0.4259227397,0.8075365306,-0.6712348801,0.430501854,-0.0196651593,0.8463130624,-0.5012834977,0.9031018064,-0.6045721046,-0.0517015202,0.672254484,-0.5828268891,0.9891687823,0.7037077279,0.4338310955,0.3555684136,0.1536202743,-0.5576715067,-0.2546152657,-0.1919108629,-0.6866142782,0.4322698915,0.6746069011,-0.2145212251,-0.13044543,0.3642765363,0.785647289,0.888634811,0.4648045758,0.5707234908,0.3629171497,-1.066463387,0.379848203,-0.6838491436,-0.5164047952,0.0683684398,-0.1811152615,-0.1788739874,-0.9885312774,0.7184711834,-0.1532582643,0.1114194409,-0.4974085579,0.7165885805,0.1431597934,0.6174757493,-0.8788814506,0.3411813255,-0.7747641404,0.5077763507,-0.2544897358,0.3719065289,0.9841776676,0.7542917188,-0.0017489398,-0.7694948181,0.5750114072,0.7389157456,-0.8158980264,-0.7700819266,-0.1107181651,0.0357037499,-0.3438680866,0.2252241292,-0.2966151639,-0.9781268121,0.8341278802,0.781774094,0.1821700717,-0.1743851221,-0.6555957369,0.6384049778,-0.1440530193,0.5667628097,0.5824095451,1.039342588,0.5615731374,-0.6918893023,0.6228190944,-0.1258382319,-0.932586163,0.4375530905,-0.7181547896,-0.738200742,-0.6888523471,0.487260702,0.5379713474,0.6730106446,-0.6620936445,-0.7561427368,-0.5043927524,0.9135110554,-0.4215026818,-1.1100961588,-0.8694790522,-0.3551882099,-0.4966046092,0.732285737,-0.5033529069,-0.0402189748,0.4424670718,0.08545648,-1.2429335018,-0.5491537955,-0.957979394,0.2780134461,0.4534201404,-0.3348182394,-0.3843676999,-0.3002410688,0.9048746486,1.010952538,-0.4193045877,0.1778300731,0.5585946144,-0.2562591624,0.0007282981,0.189385838,-0.8373433816,0.4941344846,-0.6550990925,0.4414746105,0.0989008326,0.4059467071,-0.4843922385,-0.5141374492,-0.7257594483,0.1269596828,0.4954672714,0.3136525475,0.6099369674,1.1723183538,1.1652005663,-0.5589483005,-0.7076192366,-0.3453235487,0.9409493364,0.4073921122,-0.0617722911,-0.9859853778,-0.4506196602,0.6675327629,-0.4304460189,0.4205010045,-0.6138211638,-0.6458226418,-0.0227619851,0.3172347681,0.4555368775,0.2820764291,-0.6178794447,0.3001283342,-0.9839874479,-0.1109325346,0.2890390169,0.3184648781,0.4228302583,-0.9188594371,0.8087707569,0.4912069458,0.998197629,-0.3657205166,-0.5363405837,1.2018583555,-0.3461878413,0.9783627716,0.6204193458,-0.836836913,-0.6749929326,-0.1776280575,-0.3883966846,1.2027861526,0.6575411013,-0.3332172969,-0.6617520259,0.4125898786,0.9248067229,-0.896408693,-1.0253150992,0.7216008082,0.326773529,0.0095492481,-0.7225194166,-0.5523507586,-0.028439561,-1.257661454,0.6931823211,0.4064281384,0.5640057119,-0.7924498461,-0.2782020505,-0.340469339,-0.3838465113,0.5930111535,0.7337794409,0.9461848369,-0.8652807565,-0.4331231831,-0.2965766072,-0.6104081496,-0.8727537679,-0.4153848155,0.7331785057,0.3357098782,-0.3269424721,-0.8919712617,0.3821813702,0.8502276812,0.2051540678,0.2803637802,0.8776968668,0.8754390623,-1.422263915,0.2116011728,-0.1795913157,0.4856479038,0.9756399775,0.3261960834,-0.0125273651,0.2986930864,-0.4880293212,-0.3881481987,-0.4780068787,-0.5470353235,0.8476750296,-0.0918089053,0.965924944,-0.4479569956,-0.1190133825,-1.4919377389,-0.0253626514,-0.5530724558,-0.7205828448,0.654912199,0.0570178249,1.0226687084,-0.6159620736,-0.2407423729,-0.0928336666,-0.162767163,0.713954831,-0.6991808717,0.6381064349,0.5081209403,0.7733723982,-0.6965219962,0.425012023,0.0369010574,-0.2217082607,-0.0448460061,0.7088786683,-0.5832083137,0.7521515406,-0.3902932,0.4215705166,1.3487724444,-0.4380973068,0.5436188334,0.1388962755,-0.7307167087,0.2318211361,0.5185212723,0.0877698608,-0.3945488614,-0.1065788679,-0.0446864764,-1.1792580237,-0.156718614,-0.2126876326,-0.174253088,-0.0068391934,-0.0470718107,0.4429459528,0.6219383996,-0.8316278708,-0.2642141799,0.2889491716,-0.6362897167,0.0627399441,-0.536061961,1.1241512063,1.1232889135,0.3531657672,-0.6824544518,-0.1435176233,-0.045781788,-0.130425188,-0.0619362025,1.0314884586,-0.8096485636,-0.6039849824,0.6322964914,0.664401854,-0.6440976411,-0.4868997602,0.8633765281,-1.1478751621,-0.6606233231,0.3905975726,0.1748245546,0.4004852937,-0.4347784339,0.5149584515,0.9721317751,-0.754013722,-0.9016352278,0.9185772939,-0.6574176572,-0.4310207971,-0.2131946248,0.0681146506,1.2652494566,-0.1377378928,0.136098625,0.4047399213,0.2302105881,0.2255897973,0.0528125391,-0.3624991227,0.9571703884,0.0360079789,-0.6411341839,-1.2720165726,0.6231776075,-0.9516413377,0.0351665535,-0.3185458822,-0.4602454467,-0.3170413607,0.6746260221,1.0255049189,-0.8507070184,-0.6526102363,-0.6276601701,-0.6279788177,0.1477746517,-0.872989812,0.500531538,1.1638888034,0.3461365083,0.4101740664,0.8193238701,-1.1050163771,-0.0875192187,-1.0117296994,-0.4886529316,-0.9183897338,1.3645486141,-0.1884889829,-0.682015131,-0.0093806619,0.7937015364,1.1161579323,-0.9180614899,1.2104716202,0.5835040253,0.0392508926,-0.1981075748,1.3012854298,0.7628754543,0.5264642001,0.3429145643,-0.7499596498,0.3418828171,-0.999499056,-0.185948306,0.8881328897,-0.0124044776,0.579659737,-0.5226615084,0.2354879098,-0.876420824,-0.2923358235,0.8490523483,0.01713714,-0.9219543603,-0.0232452423,0.5625101509,0.3214872795,-0.6968450142,-0.3881815282,0.1824396872,0.8148866536,-1.0259080024,-0.3201576686,0.1718861621,-0.2877110194,0.4057064811,-0.9362317099,-0.2887618868,-0.1591700378,-0.3666519131,0.2891003516,-0.5876343103,0.2669149563,0.2957537912,-1.1890181711,0.1847727218,0.224978221,-0.7961490968,0.5574461879,0.4013460759,-0.3765351912,-0.2959265757,0.5357349231,-1.1339532083,-0.3590448212,0.6281192807,1.1759943413,0.1488718729,0.0920703682,-0.8298477779,-0.6048415992,0.3056211247,0.5134669385,-0.5139643821,-0.1422040004,0.7314141355,0.277666422,0.1444390109,-0.3316353164,0.3171907538,-1.3075501369,-0.8250932106,-1.2549244839,-0.3122520918,-0.6229399929,-0.7397253786,0.683498642,-1.1998118998,-0.5600720543,0.2447052377,-0.3047573164,0.9589577044,0.161852215,0.1898204952,0.7487894354,0.175261442,0.981917824,-1.7365633568,0.2926754266,0.7009606487,-0.228099414,0.5263358112,-0.1750128674,0.6710826289,0.6026496796,-0.2983669947,0.8880354556,0.3464100209,0.9123678473,0.7962973204,-1.0191429018,-0.2242076275,-0.428275548,0.3148706462,-0.1510693771,1.3354565386,0.3731425242,0.8624530732,0.2361573281,-0.0662382794,1.3107747828,-0.0639462655,-0.1474677553,-0.866499748,0.2616036788,-0.3056218233,0.4340090153,0.010934619,0.8110951495,-0.2194198505,0.8102444796,1.4759530533,-0.0841086284,0.1636304719,-0.1482896178,-0.5389756173,-0.9536378799,0.4151898292,0.4223435721,0.4334599947,0.4893279737,0.2335999638,-0.758198157,-0.103714529,-0.2294929755,-0.4473309341,0.7490260919,1.7384380655,1.1697184311,-0.6581289031,-0.08091395,-0.8081622743,-0.1465230578,2.5648083075,-1.0269016618,0.3820149932,-0.3542659413,-0.6388175785,0.865576563,0.5762506525,0.4011692683,0.873678409,0.1662760451,-0.8041093737,0.2185693358,0.3990041509,-1.0943404238,0.2228296598,0.1702578952,0.7311907352,-0.469156144,0.1154607067,-0.1133041929,0.366785268,0.3115857232,-0.4316687584,-0.6846664131,-0.5387742803,1.3410002146,-1.6264381128,2.6900776675,3.5159197002,0.4307955973,-0.2556007934,-0.2540978966,-0.3635540437,-0.6773139771,0.2533984847,0.4302607566,1.0931411846,1.1463683959,0.5412660239,0.0302969325,-1.070365551,-0.4215134604,1.3859440289,-0.1923723652,0.4239686927,-0.6805147324,-0.6728997486,-0.929949688,-0.8243890067,-0.5013509018,-0.3925390745,0.1117443866,0.7842013432,-0.0203925734,0.4595348951,-0.54661751,1.1061185267,0.4354258892,0.6861372421,1.1854449604,0.6818066017,0.4444597382,0.6883355808,0.7581533283,-0.241439964,-0.2830635587,-0.3999253354,-1.1989982891,-0.4698344761,0.5372968244,0.4333475526,0.022290412,0.1039271619,-0.4944323894,0.2160904391,-0.5131694017,-0.5985385356,-0.2650513277,0.435178083,-0.0338020601,-0.4076397861,-0.6430998512,-0.1368308116,-0.5580679578,0.516469092,-0.9729812536,-0.8950037268,0.9745427555,-0.8245031605,-0.0875368968,0.8412848192,0.5253290851,0.0723729801,-0.0309414845,1.1132029433,0.8560947852,0.9212718015,0.1658697074,0.0732139771,0.3628569022,-0.3091401804,0.7933113545,0.7536602791,0.6457968444,-0.6432539415,0.5453187965,0.1805227075,0.9022193168,0.4516988635,0.8494267261,0.3604790982,-0.7410220897,0.3572088826,0.7020216129,-0.7894246496,-0.5471017506,0.0207036874,0.7717316941,0.0496699422,0.4357992238,0.5326623783,-0.1711121833,-1.0334338338,0.5031492182,-0.7156467011,-0.1268286685,-0.3797414936,0.3228422115,-1.1141700574,-0.8893698459,-0.9214934673,-0.1630218666,0.2456624929,0.4046386786,0.3863106893,-0.7195751598,-0.0371363412,-0.6772629134,0.0863006102,0.7515900952,-0.0139881611,0.503220965,0.1947424308,-0.6845769135,-0.0036347529,0.4019091051,-0.5592107865,-0.5180734957,0.7803820871,0.8594349836,-0.5367819345,0.9046617596,-0.0398284497,0.5744865485,0.102047621,0.5102396048,0.6325572185,-0.3505304862,0.472989645,0.7930295232,0.6572293009,-0.6887798,0.8471671085,-0.4658170318,0.0591181855,0.0055423357,0.1968765213,-0.0807756677,-0.8387261194,1.1477040397,0.7290704407,0.6757083569,0.3306643121,0.6040342193,0.209098655,0.7478560997,-0.147143126,0.2049416467,0.6364140127,-0.9752389193,0.7234368523,-0.3673799202,-0.3448182561,1.0761479529,-0.0778746068,0.3885241744,-0.3996929856,0.7486194922,0.3155142871,1.0704435013,0.6374958893,-0.2469870407,-0.4898307158,-0.4476388157,-0.952410906,-0.4812525439,0.6160451694,0.6660514556,0.3868226668,-0.4827397187,0.5299054678,-0.4596554942,0.5628329828,-0.0682459409,-0.5239159552,0.07283448,-0.4514429858,1.0522175982,-0.5716566027,0.3546022735,0.9008290013,-1.0059324005,-1.3540040022,-0.0362376051,-0.6085378042,-0.9458977339,-0.6828241747,-0.7360538287,0.115666731,-0.5608900003,1.8685875856,0.2563460815,0.42675302,-0.8533695446,-0.7589605384,0.6458583613,-0.6818835193,1.8467751681,-0.9437336356,-0.2217412152,1.2735078204,0.1383182281
